{"learner":{"attributes":{"scikit_learn":"{\"_estimator_type\": \"classifier\"}"},"feature_names":["HOME_STRENGTH","HOME_LEAGUE_STRENGTH","HOME_GOALS_FOR_LAST3","HOME_GOALS_AGAINST_LAST3","HOME_TARGET_LAST3","HOME_CORNERS_LAST3","HOME_OPP_STRENGTH_LAST3","HOME_OPP_LEAGUE_STRENGTH_LAST3","HOME_FORM_LAST3","AWAY_STRENGTH","AWAY_LEAGUE_STRENGTH","AWAY_GOALS_FOR_LAST3","AWAY_GOALS_AGAINST_LAST3","AWAY_TARGET_LAST3","AWAY_CORNERS_LAST3","AWAY_OPP_STRENGTH_LAST3","AWAY_OPP_LEAGUE_STRENGTH_LAST3","AWAY_FORM_LAST3","STRENGTH_DIFF","LEAGUE_STRENGTH_DIFF","HOME_GOAL_DIFF_LAST3","AWAY_GOAL_DIFF_LAST3"],"feature_types":["float","float","float","float","float","float","float","float","float","float","float","float","float","float","float","float","float","float","float","float","float","float"],"gradient_booster":{"model":{"gbtree_model_param":{"num_parallel_tree":"1","num_trees":"500"},"iteration_indptr":[0,1,2,3,4,5,6,7,8,9,10,11,12,13,14,15,16,17,18,19,20,21,22,23,24,25,26,27,28,29,30,31,32,33,34,35,36,37,38,39,40,41,42,43,44,45,46,47,48,49,50,51,52,53,54,55,56,57,58,59,60,61,62,63,64,65,66,67,68,69,70,71,72,73,74,75,76,77,78,79,80,81,82,83,84,85,86,87,88,89,90,91,92,93,94,95,96,97,98,99,100,101,102,103,104,105,106,107,108,109,110,111,112,113,114,115,116,117,118,119,120,121,122,123,124,125,126,127,128,129,130,131,132,133,134,135,136,137,138,139,140,141,142,143,144,145,146,147,148,149,150,151,152,153,154,155,156,157,158,159,160,161,162,163,164,165,166,167,168,169,170,171,172,173,174,175,176,177,178,179,180,181,182,183,184,185,186,187,188,189,190,191,192,193,194,195,196,197,198,199,200,201,202,203,204,205,206,207,208,209,210,211,212,213,214,215,216,217,218,219,220,221,222,223,224,225,226,227,228,229,230,231,232,233,234,235,236,237,238,239,240,241,242,243,244,245,246,247,248,249,250,251,252,253,254,255,256,257,258,259,260,261,262,263,264,265,266,267,268,269,270,271,272,273,274,275,276,277,278,279,280,281,282,283,284,285,286,287,288,289,290,291,292,293,294,295,296,297,298,299,300,301,302,303,304,305,306,307,308,309,310,311,312,313,314,315,316,317,318,319,320,321,322,323,324,325,326,327,328,329,330,331,332,333,334,335,336,337,338,339,340,341,342,343,344,345,346,347,348,349,350,351,352,353,354,355,356,357,358,359,360,361,362,363,364,365,366,367,368,369,370,371,372,373,374,375,376,377,378,379,380,381,382,383,384,385,386,387,388,389,390,391,392,393,394,395,396,397,398,399,400,401,402,403,404,405,406,407,408,409,410,411,412,413,414,415,416,417,418,419,420,421,422,423,424,425,426,427,428,429,430,431,432,433,434,435,436,437,438,439,440,441,442,443,444,445,446,447,448,449,450,451,452,453,454,455,456,457,458,459,460,461,462,463,464,465,466,467,468,469,470,471,472,473,474,475,476,477,478,479,480,481,482,483,484,485,486,487,488,489,490,491,492,493,494,495,496,497,498,499,500],"tree_info":[0,0,0,0,0,0,0,0,0,0,0,0,0,0,0,0,0,0,0,0,0,0,0,0,0,0,0,0,0,0,0,0,0,0,0,0,0,0,0,0,0,0,0,0,0,0,0,0,0,0,0,0,0,0,0,0,0,0,0,0,0,0,0,0,0,0,0,0,0,0,0,0,0,0,0,0,0,0,0,0,0,0,0,0,0,0,0,0,0,0,0,0,0,0,0,0,0,0,0,0,0,0,0,0,0,0,0,0,0,0,0,0,0,0,0,0,0,0,0,0,0,0,0,0,0,0,0,0,0,0,0,0,0,0,0,0,0,0,0,0,0,0,0,0,0,0,0,0,0,0,0,0,0,0,0,0,0,0,0,0,0,0,0,0,0,0,0,0,0,0,0,0,0,0,0,0,0,0,0,0,0,0,0,0,0,0,0,0,0,0,0,0,0,0,0,0,0,0,0,0,0,0,0,0,0,0,0,0,0,0,0,0,0,0,0,0,0,0,0,0,0,0,0,0,0,0,0,0,0,0,0,0,0,0,0,0,0,0,0,0,0,0,0,0,0,0,0,0,0,0,0,0,0,0,0,0,0,0,0,0,0,0,0,0,0,0,0,0,0,0,0,0,0,0,0,0,0,0,0,0,0,0,0,0,0,0,0,0,0,0,0,0,0,0,0,0,0,0,0,0,0,0,0,0,0,0,0,0,0,0,0,0,0,0,0,0,0,0,0,0,0,0,0,0,0,0,0,0,0,0,0,0,0,0,0,0,0,0,0,0,0,0,0,0,0,0,0,0,0,0,0,0,0,0,0,0,0,0,0,0,0,0,0,0,0,0,0,0,0,0,0,0,0,0,0,0,0,0,0,0,0,0,0,0,0,0,0,0,0,0,0,0,0,0,0,0,0,0,0,0,0,0,0,0,0,0,0,0,0,0,0,0,0,0,0,0,0,0,0,0,0,0,0,0,0,0,0,0,0,0,0,0,0,0,0,0,0,0,0,0,0,0,0,0,0,0,0,0,0,0,0,0,0,0,0,0,0,0,0,0,0,0,0,0,0,0,0,0,0,0,0,0,0,0,0,0,0,0,0,0,0,0,0,0,0,0,0,0,0,0,0,0,0,0,0,0,0,0,0,0],"trees":[{"base_weights":[7.170378E-8,-6.202271E-2,6.1046356E-1,-1.3179632E-1,1.8064408E-1,3.4615168E-1,8.540049E-1,-1.9731852E-1,7.240608E-2,4.70373E-1,4.626063E-2,-4.285536E-1,4.7446263E-1,4.4853604E-1,1.1014056E0,-1.1265154E-1,-3.470444E-1,1.2461737E0,4.2848825E-2,3.9650807E-1,1.3258144E0,4.8583242E-1,-3.0489137E-2,-6.453704E-1,3.475346E-1,6.226192E-1,-1.4976517E-2,1.1415732E-1,9.1122895E-1,1.5254648E0,7.3611826E-1,-2.30994E-1,8.376701E-2,1.8287359E-1,-4.005817E-1,1.8570529E0,-7.292619E-1,-8.2274544E-1,6.309512E-2,3.0778766E-1,1.0382973E0,-1.7694831E-1,1.6720428E0,2.4265088E-1,1.0313649E0,-1.6246007E-1,1.3666654E-1,-8.7146774E-2,-9.443883E-1,-4.2871412E-2,1.2179952E0,9.009516E-2,7.9766655E-1,1.0136467E0,-3.972054E-1,-4.7883642E-1,5.638055E-1,-2.7346975E-1,1.1652273E0,1.6085019E0,-1.9914037E-2,-8.0859405E-1,9.2723995E-1,-3.4535446E-3,-2.3805473E-2,1.0426691E-2,-1.3795708E-2,1.3627372E-2,-3.577895E-2,-3.5153832E-2,-1.6201211E-2,-2.3736348E-2,1.19140066E-1,-4.2871412E-2,-9.966739E-3,-4.8091892E-2,1.493208E-2,-8.894049E-3,6.6183666E-3,6.9024526E-3,2.82746E-2,5.9747186E-2,-5.274083E-3,2.1556022E-2,-3.8021166E-2,1.2174702E-1,5.685035E-2,-2.0542895E-2,2.805349E-2,1.8980036E-2,7.642792E-2,-1.1019654E-2,1.48708075E-2,5.7363838E-2,4.301104E-3,4.2291053E-2,-2.5843551E-2,-6.0375918E-2,-1.2529555E-3,-9.966739E-3,9.774062E-2,7.204995E-2,-9.630223E-3,6.0033392E-2,2.0912804E-2,8.3445854E-2,-8.847415E-3,4.404627E-2,-2.8397465E-2,-3.5189625E-2,6.472971E-2,-1.385613E-2,4.6798807E-2,1.9882616E-2,-4.477537E-2,1.1161243E-2,7.642673E-2,9.347913E-3,8.5061595E-2,-5.3016074E-2,-4.6012835E-3,-1.5493186E-2,5.6421395E-2],"categories":[],"categories_nodes":[],"categories_segments":[],"categories_sizes":[],"default_left":[0,0,1,0,0,0,0,0,0,0,0,0,0,0,0,0,0,0,0,0,0,0,0,0,0,0,0,0,0,0,0,0,1,1,0,0,0,0,0,0,0,0,0,0,0,0,1,0,0,0,0,0,0,0,0,0,0,0,0,0,0,0,0,0,0,0,0,0,0,0,0,0,0,0,0,0,0,0,0,0,0,0,0,0,0,0,0,0,0,0,0,0,0,0,0,0,0,0,0,0,0,0,0,0,0,0,0,0,0,0,0,0,0,0,0,0,0,0,0,0,0,0,0],"id":0,"left_children":[1,3,5,7,9,11,13,15,17,19,21,23,25,27,29,31,33,35,37,39,41,43,45,47,49,51,53,55,57,59,61,63,65,67,69,71,73,75,77,79,81,83,85,87,89,91,93,95,97,-1,99,101,103,105,107,109,111,113,115,117,-1,119,121,-1,-1,-1,-1,-1,-1,-1,-1,-1,-1,-1,-1,-1,-1,-1,-1,-1,-1,-1,-1,-1,-1,-1,-1,-1,-1,-1,-1,-1,-1,-1,-1,-1,-1,-1,-1,-1,-1,-1,-1,-1,-1,-1,-1,-1,-1,-1,-1,-1,-1,-1,-1,-1,-1,-1,-1,-1,-1,-1,-1],"loss_changes":[1.10746895E2,4.4980927E1,1.7069511E1,2.7614418E1,2.308119E1,1.3229964E1,1.3521591E1,1.9761929E1,1.7357038E1,1.1347599E1,1.3727866E1,3.4460163E0,8.19627E0,8.348407E0,1.2212082E1,2.3246521E1,1.606668E1,1.6186506E1,8.648782E0,9.610611E0,7.844841E0,7.773159E0,7.676681E0,2.4741302E0,6.111326E0,8.00919E0,1.1101286E1,9.030869E0,7.172079E0,6.8555145E0,1.4973959E1,2.4726486E1,1.6950163E1,4.4179444E0,1.1636673E1,1.298579E1,7.5027704E-2,2.04711E0,8.040562E0,6.6861963E0,3.845461E0,1.6125857E0,2.0837746E0,9.207447E0,5.3628197E0,5.2436576E0,7.7643943E0,3.0206573E0,2.3576927E0,0E0,3.7501378E0,8.898526E0,9.45438E0,6.26639E0,4.986683E0,6.779804E0,6.251572E0,2.372817E0,6.1423454E0,4.6244125E0,0E0,9.556637E-1,1.1136906E1,0E0,0E0,0E0,0E0,0E0,0E0,0E0,0E0,0E0,0E0,0E0,0E0,0E0,0E0,0E0,0E0,0E0,0E0,0E0,0E0,0E0,0E0,0E0,0E0,0E0,0E0,0E0,0E0,0E0,0E0,0E0,0E0,0E0,0E0,0E0,0E0,0E0,0E0,0E0,0E0,0E0,0E0,0E0,0E0,0E0,0E0,0E0,0E0,0E0,0E0,0E0,0E0,0E0,0E0,0E0,0E0,0E0,0E0,0E0,0E0],"parents":[2147483647,0,0,1,1,2,2,3,3,4,4,5,5,6,6,7,7,8,8,9,9,10,10,11,11,12,12,13,13,14,14,15,15,16,16,17,17,18,18,19,19,20,20,21,21,22,22,23,23,24,24,25,25,26,26,27,27,28,28,29,29,30,30,31,31,32,32,33,33,34,34,35,35,36,36,37,37,38,38,39,39,40,40,41,41,42,42,43,43,44,44,45,45,46,46,47,47,48,48,50,50,51,51,52,52,53,53,54,54,55,55,56,56,57,57,58,58,59,59,61,61,62,62],"right_children":[2,4,6,8,10,12,14,16,18,20,22,24,26,28,30,32,34,36,38,40,42,44,46,48,50,52,54,56,58,60,62,64,66,68,70,72,74,76,78,80,82,84,86,88,90,92,94,96,98,-1,100,102,104,106,108,110,112,114,116,118,-1,120,122,-1,-1,-1,-1,-1,-1,-1,-1,-1,-1,-1,-1,-1,-1,-1,-1,-1,-1,-1,-1,-1,-1,-1,-1,-1,-1,-1,-1,-1,-1,-1,-1,-1,-1,-1,-1,-1,-1,-1,-1,-1,-1,-1,-1,-1,-1,-1,-1,-1,-1,-1,-1,-1,-1,-1,-1,-1,-1,-1,-1],"split_conditions":[8.88E1,8.37E1,5.3333335E0,2.8E0,8.42E1,8.113333E1,1E0,8.01E1,6.93E1,9.19E1,-8.2E0,1.38E1,7E0,6.3333335E0,8.403333E1,7.7E1,-9.8E0,7.7333336E1,7.413333E1,6.6666665E0,8.163333E1,5.3333335E0,8.59E1,1.3333334E0,7.6666665E0,8.386667E1,8.34E1,1.6666666E0,3.6E0,3E0,8.37E1,7.56E1,3.6666667E0,8E0,7.74E1,1.3333334E0,8.08E1,7.4E0,1E0,5.3333335E0,2E0,1.6666666E0,7.6666665E0,5E0,-3.3333334E-1,7.1E0,2.3333333E0,6.4E0,1.6666666E0,-4.2871412E-2,5E0,8.35E1,8.43E1,8.29E1,7.96E1,1.38E1,4E0,6.6666665E0,4E0,-1.6666666E0,-1.9914037E-2,8.6833336E1,3E0,-3.4535446E-3,-2.3805473E-2,1.0426691E-2,-1.3795708E-2,1.3627372E-2,-3.577895E-2,-3.5153832E-2,-1.6201211E-2,-2.3736348E-2,1.19140066E-1,-4.2871412E-2,-9.966739E-3,-4.8091892E-2,1.493208E-2,-8.894049E-3,6.6183666E-3,6.9024526E-3,2.82746E-2,5.9747186E-2,-5.274083E-3,2.1556022E-2,-3.8021166E-2,1.2174702E-1,5.685035E-2,-2.0542895E-2,2.805349E-2,1.8980036E-2,7.642792E-2,-1.1019654E-2,1.48708075E-2,5.7363838E-2,4.301104E-3,4.2291053E-2,-2.5843551E-2,-6.0375918E-2,-1.2529555E-3,-9.966739E-3,9.774062E-2,7.204995E-2,-9.630223E-3,6.0033392E-2,2.0912804E-2,8.3445854E-2,-8.847415E-3,4.404627E-2,-2.8397465E-2,-3.5189625E-2,6.472971E-2,-1.385613E-2,4.6798807E-2,1.9882616E-2,-4.477537E-2,1.1161243E-2,7.642673E-2,9.347913E-3,8.5061595E-2,-5.3016074E-2,-4.6012835E-3,-1.5493186E-2,5.6421395E-2],"split_indices":[0,7,5,18,16,15,3,10,10,9,18,18,8,4,7,10,18,7,7,4,15,5,1,11,4,6,15,2,18,20,15,16,5,13,0,12,0,18,12,13,20,2,13,14,20,18,5,18,3,0,8,1,7,9,9,18,8,14,13,21,0,6,13,0,0,0,0,0,0,0,0,0,0,0,0,0,0,0,0,0,0,0,0,0,0,0,0,0,0,0,0,0,0,0,0,0,0,0,0,0,0,0,0,0,0,0,0,0,0,0,0,0,0,0,0,0,0,0,0,0,0,0,0],"split_type":[0,0,0,0,0,0,0,0,0,0,0,0,0,0,0,0,0,0,0,0,0,0,0,0,0,0,0,0,0,0,0,0,0,0,0,0,0,0,0,0,0,0,0,0,0,0,0,0,0,0,0,0,0,0,0,0,0,0,0,0,0,0,0,0,0,0,0,0,0,0,0,0,0,0,0,0,0,0,0,0,0,0,0,0,0,0,0,0,0,0,0,0,0,0,0,0,0,0,0,0,0,0,0,0,0,0,0,0,0,0,0,0,0,0,0,0,0,0,0,0,0,0,0],"sum_hessian":[2.9229648E3,2.654198E3,2.6876678E2,2.0618223E3,5.9237573E2,1.3004845E2,1.3871834E2,1.5609846E3,5.0083774E2,1.8690683E2,4.0546887E2,1.8146296E1,1.1190215E2,5.363238E1,8.508596E1,9.982478E2,5.6273676E2,1.1291028E1,4.895467E2,1.7339793E2,1.3508908E1,5.9479523E1,3.4598935E2,1.4315411E1,3.8308845E0,8.5690834E1,2.6211315E1,3.1856829E1,2.1775553E1,3.7905594E1,4.7180367E1,6.2282117E2,3.7542667E2,5.14145E1,5.1132227E2,8.669896E0,2.6211314E0,1.02829E1,4.792638E2,1.5363863E2,1.9759298E1,2.6211314E0,1.0887776E1,4.213973E1,1.7339792E1,1.9335886E2,1.526305E2,5.443888E0,8.871522E0,1.613004E0,2.2178805E0,2.1573929E1,6.4116905E1,6.653641E0,1.9557673E1,1.3710534E1,1.8146296E1,3.8308845E0,1.794467E1,3.6494213E1,1.4113785E0,4.839012E0,4.2341354E1,3.7582993E2,2.4699123E2,2.7904968E2,9.637698E1,4.7381992E1,4.03251E0,1.0161925E2,4.09703E2,1.613004E0,7.0568924E0,1.613004E0,1.0081275E0,9.274773E0,1.0081275E0,1.0665989E2,3.726039E2,9.355423E1,6.0084396E1,1.7339792E1,2.419506E0,1.4113785E0,1.209753E0,3.0243824E0,7.8633943E0,1.3710534E1,2.8429195E1,8.266645E0,9.073148E0,1.7218817E2,2.1170677E1,6.2503905E0,1.4638011E2,1.4113785E0,4.03251E0,6.653641E0,2.2178805E0,1.0081275E0,1.209753E0,3.0243824E0,1.8549545E1,3.0042198E1,3.4074707E1,4.03251E0,2.6211314E0,1.8146294E0,1.7743044E1,1.2702406E1,1.0081275E0,5.645514E0,1.2500781E1,2.016255E0,1.8146294E0,5.443888E0,1.2500781E1,2.419506E0,3.4074707E1,3.226008E0,1.613004E0,5.8471394E0,3.6494213E1],"tree_param":{"num_deleted":"0","num_feature":"22","num_nodes":"123","size_leaf_vector":"1"}},{"base_weights":[1.3022701E-4,-5.8960825E-2,5.737518E-1,-1.2568204E-1,1.7158446E-1,3.280623E-1,7.976323E-1,-1.9073993E-1,6.184191E-2,4.436981E-1,4.425516E-2,-4.116233E-1,4.4826022E-1,4.2424598E-1,1.0221039E0,-1.1019743E-1,-3.331533E-1,8.852049E-1,2.5392892E-2,3.7390402E-1,1.2402579E0,4.584543E-1,-2.882889E-2,-6.246545E-1,3.377088E-1,1.438293E0,3.7824377E-1,-3.6134073E-1,5.8919966E-1,1.4047942E0,6.873574E-1,-2.2171065E-1,7.494078E-2,1.7252737E-1,-3.8576037E-1,-1.6115226E-1,1.8506051E0,4.447967E-2,-9.443985E-1,2.9062364E-1,9.676956E-1,-1.7313375E-1,1.5562974E0,-1.6739494E-1,6.479848E-1,-6.2887184E-2,6.065383E-1,-8.066697E-2,-9.2077744E-1,-4.2055123E-2,1.1668174E0,-1.000196E-2,1.2044058E-1,5.322579E-1,-1.4509885E-1,-7.5038123E-1,5.249371E-2,1.1207674E-2,7.351486E-1,1.4795707E0,-1.943392E-2,-7.891085E-1,8.642246E-1,-3.49533E-3,-2.2740996E-2,9.793653E-3,-1.38870645E-2,-3.8945638E-3,2.4103362E-2,-2.3500727E-2,-6.59066E-3,8.904367E-2,-4.077931E-2,1.0622475E-1,-1.5104135E-2,8.639584E-2,1.7104418E-3,-5.565551E-2,7.1903206E-3,6.540842E-3,2.655281E-2,6.756691E-2,2.2265501E-2,2.0807331E-2,-3.7333988E-2,1.12665534E-1,5.3135313E-2,-1.7475335E-2,5.201111E-2,-1.2020734E-2,4.1871067E-2,-1.0175203E-2,4.5498186E-3,9.9531E-3,8.578482E-2,4.06045E-2,-2.5043547E-2,-5.917138E-2,-1.2102531E-3,-9.738598E-3,9.2878364E-2,4.0352415E-2,-4.129911E-2,7.387716E-3,4.1553535E-2,5.625279E-2,-1.8669E-2,-4.964438E-2,-4.3723257E-3,-1.8740438E-2,5.335612E-2,1.6582198E-2,5.362133E-2,5.5254754E-2,9.46054E-2,-3.3911038E-3,-5.2319895E-2,-1.4921077E-2,5.2394103E-2],"categories":[],"categories_nodes":[],"categories_segments":[],"categories_sizes":[],"default_left":[0,0,1,0,0,0,0,0,0,0,0,0,0,0,0,0,0,0,0,0,0,0,0,0,0,1,0,1,0,0,0,0,1,0,1,0,0,0,0,0,0,0,0,0,0,0,0,0,0,0,0,0,0,0,0,0,0,0,1,0,0,0,0,0,0,0,0,0,0,0,0,0,0,0,0,0,0,0,0,0,0,0,0,0,0,0,0,0,0,0,0,0,0,0,0,0,0,0,0,0,0,0,0,0,0,0,0,0,0,0,0,0,0,0,0,0,0,0,0],"id":1,"left_children":[1,3,5,7,9,11,13,15,17,19,21,23,25,27,29,31,33,35,37,39,41,43,45,47,49,51,53,55,57,59,61,63,65,67,69,71,73,75,77,79,81,83,85,87,89,91,93,95,97,-1,99,101,-1,103,105,107,-1,109,111,113,-1,115,117,-1,-1,-1,-1,-1,-1,-1,-1,-1,-1,-1,-1,-1,-1,-1,-1,-1,-1,-1,-1,-1,-1,-1,-1,-1,-1,-1,-1,-1,-1,-1,-1,-1,-1,-1,-1,-1,-1,-1,-1,-1,-1,-1,-1,-1,-1,-1,-1,-1,-1,-1,-1,-1,-1,-1,-1],"loss_changes":[9.9127174E1,4.080511E1,1.4761566E1,2.5104858E1,2.0613728E1,1.1913198E1,1.1485336E1,1.7481796E1,1.5899268E1,1.0083729E1,1.2327414E1,3.2377756E0,7.3553066E0,7.353361E0,1.0320885E1,2.018821E1,1.4730751E1,2.2987074E1,9.4650545E0,8.41559E0,6.903803E0,7.352583E0,7.5410542E0,2.360548E0,5.7181225E0,1.0102308E1,8.765085E0,6.3780003E0,3.8654652E0,5.959572E0,1.3465694E1,2.1555098E1,1.57510195E1,4.1174192E0,1.0627617E1,1.6320225E1,7.5769005E0,8.589547E0,1.9722872E0,5.911582E0,3.647417E0,1.5321972E0,1.8158512E0,3.6602645E0,8.124815E0,7.1590147E0,7.673502E0,2.8165586E0,2.2534857E0,0E0,3.4317765E0,3.2485654E0,0E0,9.470102E0,7.754085E0,1.2901239E0,0E0,4.587307E0,4.631752E0,3.8955154E0,0E0,9.978955E-1,9.749447E0,0E0,0E0,0E0,0E0,0E0,0E0,0E0,0E0,0E0,0E0,0E0,0E0,0E0,0E0,0E0,0E0,0E0,0E0,0E0,0E0,0E0,0E0,0E0,0E0,0E0,0E0,0E0,0E0,0E0,0E0,0E0,0E0,0E0,0E0,0E0,0E0,0E0,0E0,0E0,0E0,0E0,0E0,0E0,0E0,0E0,0E0,0E0,0E0,0E0,0E0,0E0,0E0,0E0,0E0,0E0,0E0],"parents":[2147483647,0,0,1,1,2,2,3,3,4,4,5,5,6,6,7,7,8,8,9,9,10,10,11,11,12,12,13,13,14,14,15,15,16,16,17,17,18,18,19,19,20,20,21,21,22,22,23,23,24,24,25,25,26,26,27,27,28,28,29,29,30,30,31,31,32,32,33,33,34,34,35,35,36,36,37,37,38,38,39,39,40,40,41,41,42,42,43,43,44,44,45,45,46,46,47,47,48,48,50,50,51,51,53,53,54,54,55,55,57,57,58,58,59,59,61,61,62,62],"right_children":[2,4,6,8,10,12,14,16,18,20,22,24,26,28,30,32,34,36,38,40,42,44,46,48,50,52,54,56,58,60,62,64,66,68,70,72,74,76,78,80,82,84,86,88,90,92,94,96,98,-1,100,102,-1,104,106,108,-1,110,112,114,-1,116,118,-1,-1,-1,-1,-1,-1,-1,-1,-1,-1,-1,-1,-1,-1,-1,-1,-1,-1,-1,-1,-1,-1,-1,-1,-1,-1,-1,-1,-1,-1,-1,-1,-1,-1,-1,-1,-1,-1,-1,-1,-1,-1,-1,-1,-1,-1,-1,-1,-1,-1,-1,-1,-1,-1,-1,-1],"split_conditions":[8.88E1,8.37E1,5.3333335E0,2.6E0,8.42E1,8.113333E1,1E0,8.01E1,7.18E1,9.19E1,-8.2E0,1.38E1,8.173333E1,1.3333334E0,8.403333E1,7.7E1,-9.8E0,7.1E0,7.7E0,6.6666665E0,8.163333E1,8.86E1,1.6666666E0,1.3333334E0,7.6666665E0,4.6666665E0,7E0,6.3333335E0,3.6E0,3E0,8.37E1,7.56E1,3.6666667E0,8.303333E1,4E0,7.35E1,7.7566666E1,7.303333E1,7.67E1,5.3333335E0,1.6666666E0,1.6666666E0,7.6666665E0,1E0,4.3333335E0,8.6566666E1,2E0,6.4E0,1.6666666E0,-4.2055123E-2,5E0,7E0,1.2044058E-1,1.3333334E0,8.05E1,8.6566666E1,5.249371E-2,1.6666666E0,4.3333335E0,8.4E1,-1.943392E-2,3.7E0,3E0,-3.49533E-3,-2.2740996E-2,9.793653E-3,-1.38870645E-2,-3.8945638E-3,2.4103362E-2,-2.3500727E-2,-6.59066E-3,8.904367E-2,-4.077931E-2,1.0622475E-1,-1.5104135E-2,8.639584E-2,1.7104418E-3,-5.565551E-2,7.1903206E-3,6.540842E-3,2.655281E-2,6.756691E-2,2.2265501E-2,2.0807331E-2,-3.7333988E-2,1.12665534E-1,5.3135313E-2,-1.7475335E-2,5.201111E-2,-1.2020734E-2,4.1871067E-2,-1.0175203E-2,4.5498186E-3,9.9531E-3,8.578482E-2,4.06045E-2,-2.5043547E-2,-5.917138E-2,-1.2102531E-3,-9.738598E-3,9.2878364E-2,4.0352415E-2,-4.129911E-2,7.387716E-3,4.1553535E-2,5.625279E-2,-1.8669E-2,-4.964438E-2,-4.3723257E-3,-1.8740438E-2,5.335612E-2,1.6582198E-2,5.362133E-2,5.5254754E-2,9.46054E-2,-3.3911038E-3,-5.2319895E-2,-1.4921077E-2,5.2394103E-2],"split_indices":[0,7,5,18,16,15,3,10,10,9,18,18,15,2,7,10,18,18,19,4,15,9,20,11,4,14,8,13,18,20,15,16,5,6,4,16,7,15,9,13,12,2,13,20,14,6,12,18,3,0,8,4,0,12,9,6,0,21,13,1,0,18,13,0,0,0,0,0,0,0,0,0,0,0,0,0,0,0,0,0,0,0,0,0,0,0,0,0,0,0,0,0,0,0,0,0,0,0,0,0,0,0,0,0,0,0,0,0,0,0,0,0,0,0,0,0,0,0,0],"split_type":[0,0,0,0,0,0,0,0,0,0,0,0,0,0,0,0,0,0,0,0,0,0,0,0,0,0,0,0,0,0,0,0,0,0,0,0,0,0,0,0,0,0,0,0,0,0,0,0,0,0,0,0,0,0,0,0,0,0,0,0,0,0,0,0,0,0,0,0,0,0,0,0,0,0,0,0,0,0,0,0,0,0,0,0,0,0,0,0,0,0,0,0,0,0,0,0,0,0,0,0,0,0,0,0,0,0,0,0,0,0,0,0,0,0,0,0,0,0,0],"sum_hessian":[2.9224607E3,2.6503362E3,2.721245E2,2.0558232E3,5.94513E2,1.309183E2,1.412062E2,1.526289E3,5.295343E2,1.8871918E2,4.057938E2,1.7961369E1,1.1295694E2,5.4102333E1,8.7103874E1,9.760522E2,5.5023676E2,2.1460793E1,5.080735E2,1.7486685E2,1.3852335E1,6.0071194E1,3.457226E2,1.4114947E1,3.84642E0,6.170061E0,1.0678688E2,9.182137E0,4.4920197E1,3.915003E1,4.7953846E1,6.090245E2,3.670277E2,5.1633606E1,4.9860315E2,1.0698359E1,1.0762435E1,4.9920264E2,8.870833E0,1.5466432E2,2.020252E1,2.6140344E0,1.1238301E1,1.3990363E1,4.608083E1,3.289885E2,1.6734114E1,5.423751E0,8.691196E0,1.5822874E0,2.2641327E0,2.8727617E0,3.2972991E0,8.249303E1,2.429385E1,7.5649276E0,1.617209E0,9.27315E0,3.564705E1,3.7751072E1,1.3989574E0,4.759609E0,4.3194237E1,3.6962155E2,2.3940292E2,2.7364227E2,9.338544E1,2.8956266E1,2.267734E1,3.737501E2,1.2485304E2,2.2626696E0,8.435689E0,9.559288E0,1.2031463E0,2.0130877E0,4.9718954E2,7.660317E0,1.2105162E0,9.3837814E1,6.0826515E1,1.0733169E1,9.469351E0,1.4246911E0,1.1893433E0,3.181079E0,8.057222E0,1.2774515E1,1.2158483E0,8.051703E0,3.8029125E1,1.717359E2,1.5725258E2,1.3100718E1,3.6333961E0,1.4373587E0,3.9863923E0,6.474539E0,2.2166576E0,1.0036972E0,1.2604355E0,1.4409093E0,1.4318526E0,3.6727554E1,4.5765476E1,3.1026046E0,2.1191246E1,5.174384E0,2.3905432E0,7.263011E0,2.0101392E0,1.7133078E1,1.851397E1,2.171674E1,1.603433E1,1.5836364E0,3.1759725E0,5.807145E0,3.7387093E1],"tree_param":{"num_deleted":"0","num_feature":"22","num_nodes":"119","size_leaf_vector":"1"}},{"base_weights":[3.5373334E-4,-5.5955928E-2,5.402714E-1,-1.1974113E-1,1.6309164E-1,3.110438E-1,7.47193E-1,-1.7990614E-1,6.566784E-2,4.191438E-1,4.232665E-2,-3.957145E-1,4.2376468E-1,1.668254E-1,8.688386E-1,-1.0231044E-1,-3.1852502E-1,8.3393484E-1,2.9172428E-2,3.5309866E-1,1.1638029E0,4.323716E-1,-2.717967E-2,-6.048747E-1,3.280306E-1,-3.249631E-1,5.0268227E-1,-2.7577367E-1,9.134953E-1,5.554439E-1,1.0545346E0,-2.1091025E-1,7.554245E-2,1.6364548E-1,-3.6847717E-1,-1.5047134E-1,1.7069093E0,4.8556305E-2,-9.199681E-1,2.7455658E-1,9.065826E-1,-1.6955025E-1,1.4542824E0,2.0568793E-1,9.3504906E-1,-5.985764E-2,5.7507485E-1,-7.461823E-2,-8.982717E-1,-4.1269105E-2,1.1192588E0,5.266035E-1,-5.161142E-2,6.393557E-2,6.559697E-1,-7.150592E-1,2.1447523E-1,2.6888436E-1,1.5494882E0,4.4851902E-1,1.3978964E0,1.1806151E0,1.2835504E-1,-3.1368805E-3,-2.216386E-2,9.342868E-3,-1.2604082E-2,1.2425755E-2,-3.5039455E-2,-3.3190668E-2,-1.4726539E-2,8.378827E-2,-3.9618306E-2,9.7604E-2,-1.47473905E-2,8.142755E-2,1.9042783E-3,-5.4417826E-2,6.981078E-3,-6.322553E-3,1.8228106E-2,2.3901634E-2,6.655902E-2,2.0087993E-2,-3.666955E-2,1.0493411E-1,4.9781177E-2,-1.9671973E-2,2.4403157E-2,-1.0118085E-2,5.6723267E-2,-1.0051376E-2,4.4147903E-3,6.042269E-2,-2.6470055E-3,3.9006807E-2,-2.4268078E-2,-5.8038574E-2,-1.1689864E-3,6.7534256E-3,8.140868E-2,-1.5954955E-2,7.751297E-2,-2.4249008E-2,2.315037E-2,8.974925E-2,2.788032E-2,1.3433342E-2,-4.3466847E-2,6.675073E-2,-1.583643E-2,-2.1222245E-2,6.616691E-2,9.331803E-2,1.1112256E-2,-8.292914E-3,3.2993745E-2,1.0384617E-1,1.7421305E-2,-3.5868462E-2,6.112949E-2,-2.3906149E-2,3.892363E-2],"categories":[],"categories_nodes":[],"categories_segments":[],"categories_sizes":[],"default_left":[0,0,1,0,0,0,0,0,0,0,0,0,0,0,0,0,0,0,0,0,0,0,0,0,0,1,0,0,0,0,0,0,1,1,0,0,0,0,0,0,0,0,0,0,0,0,0,0,0,0,0,0,0,1,0,0,0,0,0,0,0,0,1,0,0,0,0,0,0,0,0,0,0,0,0,0,0,0,0,0,0,0,0,0,0,0,0,0,0,0,0,0,0,0,0,0,0,0,0,0,0,0,0,0,0,0,0,0,0,0,0,0,0,0,0,0,0,0,0,0,0,0,0],"id":2,"left_children":[1,3,5,7,9,11,13,15,17,19,21,23,25,27,29,31,33,35,37,39,41,43,45,47,49,51,53,55,57,59,61,63,65,67,69,71,73,75,77,79,81,83,85,87,89,91,93,95,97,-1,99,101,-1,103,105,107,109,111,113,115,117,119,121,-1,-1,-1,-1,-1,-1,-1,-1,-1,-1,-1,-1,-1,-1,-1,-1,-1,-1,-1,-1,-1,-1,-1,-1,-1,-1,-1,-1,-1,-1,-1,-1,-1,-1,-1,-1,-1,-1,-1,-1,-1,-1,-1,-1,-1,-1,-1,-1,-1,-1,-1,-1,-1,-1,-1,-1,-1,-1,-1,-1],"loss_changes":[8.887747E1,3.7007133E1,1.2863167E1,2.2889046E1,1.8456448E1,1.0739308E1,1.0049042E1,1.6624996E1,1.4083936E1,9.000366E0,1.1047988E1,3.0398011E0,6.9542217E0,8.929579E0,6.347412E0,1.9221333E1,1.3435181E1,1.9835327E1,8.901425E0,7.454563E0,6.1158447E0,6.830289E0,6.852766E0,2.2531295E0,5.3560815E0,7.509595E0,6.9768906E0,3.8691697E0,3.6847382E0,3.556203E0,8.454102E0,2.1237375E1,1.3821926E1,4.049346E0,1.0800186E1,1.4957448E1,6.541752E0,7.7583923E0,1.8799324E0,5.6989403E0,3.291666E0,1.4563651E0,1.6190319E0,7.594824E0,4.5101604E0,6.9097524E0,7.1940646E0,2.6266246E0,2.1570148E0,0E0,1.435482E0,5.610898E0,0E0,6.386434E0,7.652111E0,1.6496577E0,5.734279E0,5.078586E0,1.6147623E0,5.651698E0,2.6668568E0,6.034981E0,4.2961216E0,0E0,0E0,0E0,0E0,0E0,0E0,0E0,0E0,0E0,0E0,0E0,0E0,0E0,0E0,0E0,0E0,0E0,0E0,0E0,0E0,0E0,0E0,0E0,0E0,0E0,0E0,0E0,0E0,0E0,0E0,0E0,0E0,0E0,0E0,0E0,0E0,0E0,0E0,0E0,0E0,0E0,0E0,0E0,0E0,0E0,0E0,0E0,0E0,0E0,0E0,0E0,0E0,0E0,0E0,0E0,0E0,0E0,0E0,0E0,0E0],"parents":[2147483647,0,0,1,1,2,2,3,3,4,4,5,5,6,6,7,7,8,8,9,9,10,10,11,11,12,12,13,13,14,14,15,15,16,16,17,17,18,18,19,19,20,20,21,21,22,22,23,23,24,24,25,25,26,26,27,27,28,28,29,29,30,30,31,31,32,32,33,33,34,34,35,35,36,36,37,37,38,38,39,39,40,40,41,41,42,42,43,43,44,44,45,45,46,46,47,47,48,48,50,50,51,51,53,53,54,54,55,55,56,56,57,57,58,58,59,59,60,60,61,61,62,62],"right_children":[2,4,6,8,10,12,14,16,18,20,22,24,26,28,30,32,34,36,38,40,42,44,46,48,50,52,54,56,58,60,62,64,66,68,70,72,74,76,78,80,82,84,86,88,90,92,94,96,98,-1,100,102,-1,104,106,108,110,112,114,116,118,120,122,-1,-1,-1,-1,-1,-1,-1,-1,-1,-1,-1,-1,-1,-1,-1,-1,-1,-1,-1,-1,-1,-1,-1,-1,-1,-1,-1,-1,-1,-1,-1,-1,-1,-1,-1,-1,-1,-1,-1,-1,-1,-1,-1,-1,-1,-1,-1,-1,-1,-1,-1,-1,-1,-1,-1,-1,-1,-1,-1,-1],"split_conditions":[8.88E1,8.37E1,5.3333335E0,2.8E0,8.42E1,8.113333E1,1.3333334E0,8.01E1,7.18E1,9.19E1,-8.2E0,1.38E1,-1.7E0,5.3333335E0,1E0,7.7E1,-9.8E0,7.1E0,7.7E0,6.6666665E0,8.163333E1,5.3333335E0,1.6666666E0,1.3333334E0,7.6666665E0,4E0,4E0,8.536667E1,6E0,2E0,9.003333E1,7.68E1,3.6666667E0,8E0,7.74E1,7.35E1,7.7566666E1,7.303333E1,7.67E1,1E0,1.6666666E0,1.6666666E0,7.6666665E0,5E0,8.85E1,1.6666666E0,4.3333335E0,6.4E0,1.6666666E0,-4.1269105E-2,6E0,9.52E1,-5.161142E-2,3.6666667E0,8.173333E1,7.62E1,8.73E1,1.6666666E0,2E0,5.7E0,8.27E1,3.3333334E-1,4.6666665E0,-3.1368805E-3,-2.216386E-2,9.342868E-3,-1.2604082E-2,1.2425755E-2,-3.5039455E-2,-3.3190668E-2,-1.4726539E-2,8.378827E-2,-3.9618306E-2,9.7604E-2,-1.47473905E-2,8.142755E-2,1.9042783E-3,-5.4417826E-2,6.981078E-3,-6.322553E-3,1.8228106E-2,2.3901634E-2,6.655902E-2,2.0087993E-2,-3.666955E-2,1.0493411E-1,4.9781177E-2,-1.9671973E-2,2.4403157E-2,-1.0118085E-2,5.6723267E-2,-1.0051376E-2,4.4147903E-3,6.042269E-2,-2.6470055E-3,3.9006807E-2,-2.4268078E-2,-5.8038574E-2,-1.1689864E-3,6.7534256E-3,8.140868E-2,-1.5954955E-2,7.751297E-2,-2.4249008E-2,2.315037E-2,8.974925E-2,2.788032E-2,1.3433342E-2,-4.3466847E-2,6.675073E-2,-1.583643E-2,-2.1222245E-2,6.616691E-2,9.331803E-2,1.1112256E-2,-8.292914E-3,3.2993745E-2,1.0384617E-1,1.7421305E-2,-3.5868462E-2,6.112949E-2,-2.3906149E-2,3.892363E-2],"split_indices":[0,7,5,18,16,15,2,10,10,9,18,18,18,13,3,10,18,18,19,4,15,5,20,11,4,4,14,15,18,21,15,7,5,13,0,16,7,15,9,11,3,2,13,14,9,3,13,18,3,0,8,9,0,4,15,9,15,3,12,18,6,12,14,0,0,0,0,0,0,0,0,0,0,0,0,0,0,0,0,0,0,0,0,0,0,0,0,0,0,0,0,0,0,0,0,0,0,0,0,0,0,0,0,0,0,0,0,0,0,0,0,0,0,0,0,0,0,0,0,0,0,0,0],"split_type":[0,0,0,0,0,0,0,0,0,0,0,0,0,0,0,0,0,0,0,0,0,0,0,0,0,0,0,0,0,0,0,0,0,0,0,0,0,0,0,0,0,0,0,0,0,0,0,0,0,0,0,0,0,0,0,0,0,0,0,0,0,0,0,0,0,0,0,0,0,0,0,0,0,0,0,0,0,0,0,0,0,0,0,0,0,0,0,0,0,0,0,0,0,0,0,0,0,0,0,0,0,0,0,0,0,0,0,0,0,0,0,0,0,0,0,0,0,0,0,0,0,0,0],"sum_hessian":[2.9213586E3,2.6462676E3,2.7509094E2,2.0498254E3,5.9644226E2,1.3169853E2,1.4339241E2,1.5476456E3,5.0217972E2,1.9036012E2,4.0608212E2,1.7770044E1,1.1392849E2,2.5258118E1,1.1813429E2,9.933364E2,5.5430927E2,2.1782598E1,4.8039713E2,1.7620625E2,1.4153871E1,6.06296E1,3.454525E2,1.3913367E1,3.8566778E0,1.0566016E1,1.0336247E2,1.6253996E1,9.004123E0,4.5439034E1,7.269526E1,6.1662775E2,3.7670862E2,5.1821236E1,5.02488E2,1.0626877E1,1.1155722E1,4.7171237E2,8.6847315E0,1.5561917E2,2.0587074E1,2.6063883E0,1.15474825E1,4.2757282E1,1.7872318E1,3.2852744E2,1.692509E1,5.4029465E0,8.510421E0,1.5516275E0,2.3050504E0,4.9098544E0,5.656162E0,2.7129164E1,7.623331E1,8.330723E0,7.9232726E0,5.178366E0,3.8257565E0,4.1681213E1,3.757821E0,6.3743202E1,8.952056E0,3.7730377E2,2.39324E2,2.8149603E2,9.521259E1,4.783713E1,3.9841068E0,9.902256E1,4.0346545E2,2.3448772E0,8.282E0,9.960686E0,1.1950362E0,2.0881288E0,4.6962424E2,7.470398E0,1.214333E0,2.8451666E1,1.2716751E2,1.1303852E1,9.283222E0,1.4374025E0,1.1689857E0,3.314721E0,8.232761E0,1.3570615E1,2.9186666E1,2.6638346E0,1.5208484E1,1.6804588E2,1.6048154E2,7.9664025E0,8.958688E0,1.4617423E0,3.9412043E0,6.294945E0,2.2154758E0,1.2169657E0,1.0880847E0,3.0655215E0,1.844333E0,1.132987E1,1.5799293E1,4.6888924E0,7.154442E1,1.028868E0,7.3018546E0,2.0614963E0,5.8617764E0,3.4846182E0,1.6937479E0,2.7605066E0,1.0652499E0,1.0723885E1,3.0957329E1,1.6871701E0,2.070651E0,1.0310618E0,6.271214E1,4.7683463E0,4.183709E0],"tree_param":{"num_deleted":"0","num_feature":"22","num_nodes":"123","size_leaf_vector":"1"}},{"base_weights":[5.477009E-4,-5.31508E-2,5.09708E-1,-1.1410686E-1,1.5496106E-1,2.945464E-1,7.024483E-1,-1.7389151E-1,5.6435246E-2,3.9615464E-1,4.0376406E-2,-3.8024166E-1,4.0016308E-1,3.781601E-1,8.9345336E-1,-2.3985659E-1,-1.8830424E-2,7.8808224E-1,2.3247171E-2,3.3355927E-1,1.0950378E0,-1.0494273E-1,2.1851923E-1,-5.8595425E-1,3.2064465E-1,1.175068E0,3.2567912E-1,8.1280515E-2,7.78841E-1,1.2241846E0,5.994935E-1,-8.0031425E-1,-2.2213596E-1,1.198185E-1,-1.7118527E-1,-1.4062832E-1,1.5838224E0,4.064051E-2,-8.9662325E-1,2.593451E-1,8.5135955E-1,-1.6618186E-1,1.3636457E0,8.439334E-2,-2.3848788E-1,5.8949266E-2,5.3205603E-1,1.7742416E-2,-7.233989E-1,-4.051127E-2,1.0784031E0,-1.8340897E-2,1.4489244E0,4.6333444E-1,-1.2985082E-1,-4.5649803E-1,4.7194776E-1,-2.6183367E-1,9.906191E-1,1.2915606E0,-2.0440495E-2,-7.898806E-1,7.619434E-1,6.453821E-2,-4.683491E-2,-1.1432564E-2,5.073758E-2,1.3501385E-3,3.5601195E-2,4.4029873E-2,-1.0664079E-2,7.908821E-2,-3.8496282E-2,9.0297155E-2,-1.4399566E-2,1.1385385E-3,4.202031E-2,-5.324104E-2,6.7780623E-3,-6.0335393E-3,1.7188316E-2,5.980363E-2,1.8936353E-2,1.9396592E-2,-3.602651E-2,7.851244E-2,2.3540974E-2,6.6471495E-2,1.2886598E-3,-2.15422E-2,2.9198036E-3,3.3948574E-2,-3.5603188E-3,9.897353E-2,2.1299776E-2,-4.6804678E-2,3.035844E-3,-9.670303E-3,8.5333414E-2,8.291686E-2,5.9116967E-3,-3.711809E-3,3.1571113E-2,3.1571586E-2,-2.3916217E-2,-3.3794884E-2,5.9657436E-2,-1.5584503E-2,4.082101E-2,1.9038668E-2,-4.361078E-2,5.6243967E-2,-3.6492355E-2,4.290158E-3,6.851573E-2,-5.2041527E-2,-4.3360754E-3,-1.4923277E-2,4.621382E-2],"categories":[],"categories_nodes":[],"categories_segments":[],"categories_sizes":[],"default_left":[0,0,1,0,0,0,0,0,0,0,0,0,0,0,0,0,0,0,0,0,0,0,0,0,0,0,0,0,0,0,0,0,1,0,0,0,0,1,0,0,0,0,0,0,0,0,0,0,0,0,0,0,1,0,0,0,0,0,0,0,0,0,0,0,0,0,0,0,0,0,0,0,0,0,0,0,0,0,0,0,0,0,0,0,0,0,0,0,0,0,0,0,0,0,0,0,0,0,0,0,0,0,0,0,0,0,0,0,0,0,0,0,0,0,0,0,0,0,0],"id":3,"left_children":[1,3,5,7,9,11,13,15,17,19,21,23,25,27,29,31,33,35,37,39,41,43,45,47,49,51,53,55,57,59,61,63,65,67,69,71,73,75,77,79,81,83,85,87,89,91,93,-1,95,-1,97,-1,99,101,103,105,107,109,111,113,-1,115,117,-1,-1,-1,-1,-1,-1,-1,-1,-1,-1,-1,-1,-1,-1,-1,-1,-1,-1,-1,-1,-1,-1,-1,-1,-1,-1,-1,-1,-1,-1,-1,-1,-1,-1,-1,-1,-1,-1,-1,-1,-1,-1,-1,-1,-1,-1,-1,-1,-1,-1,-1,-1,-1,-1,-1,-1],"loss_changes":[7.9888306E1,3.354794E1,1.13533325E1,2.0859606E1,1.654467E1,9.662303E0,8.725227E0,1.5485603E1,1.288872E1,8.072439E0,1.0568061E1,2.865618E0,6.3049946E0,6.594577E0,8.147171E0,1.0372986E1,9.590745E0,1.7245735E1,8.188466E0,6.637039E0,5.4494133E0,5.7096148E0,9.140747E0,2.1590285E0,5.0387726E0,4.6599703E0,6.7754354E0,7.204378E0,5.4836044E0,5.151905E0,1.1959816E1,1.0385147E1,8.54184E0,1.3050819E1,9.763404E0,1.3734424E1,5.711815E0,7.1411753E0,1.7934256E0,5.0951204E0,3.1204443E0,1.3848011E0,1.6252117E0,6.812088E0,7.5752897E0,9.943687E0,8.629856E0,0E0,2.2525249E0,0E0,2.9983058E0,0E0,2.173849E0,7.4977303E0,7.102072E0,6.056571E0,5.58856E0,2.2144983E0,5.4188805E0,3.737854E0,0E0,9.2594266E-1,8.119148E0,0E0,0E0,0E0,0E0,0E0,0E0,0E0,0E0,0E0,0E0,0E0,0E0,0E0,0E0,0E0,0E0,0E0,0E0,0E0,0E0,0E0,0E0,0E0,0E0,0E0,0E0,0E0,0E0,0E0,0E0,0E0,0E0,0E0,0E0,0E0,0E0,0E0,0E0,0E0,0E0,0E0,0E0,0E0,0E0,0E0,0E0,0E0,0E0,0E0,0E0,0E0,0E0,0E0,0E0,0E0,0E0],"parents":[2147483647,0,0,1,1,2,2,3,3,4,4,5,5,6,6,7,7,8,8,9,9,10,10,11,11,12,12,13,13,14,14,15,15,16,16,17,17,18,18,19,19,20,20,21,21,22,22,23,23,24,24,25,25,26,26,27,27,28,28,29,29,30,30,31,31,32,32,33,33,34,34,35,35,36,36,37,37,38,38,39,39,40,40,41,41,42,42,43,43,44,44,45,45,46,46,48,48,50,50,52,52,53,53,54,54,55,55,56,56,57,57,58,58,59,59,61,61,62,62],"right_children":[2,4,6,8,10,12,14,16,18,20,22,24,26,28,30,32,34,36,38,40,42,44,46,48,50,52,54,56,58,60,62,64,66,68,70,72,74,76,78,80,82,84,86,88,90,92,94,-1,96,-1,98,-1,100,102,104,106,108,110,112,114,-1,116,118,-1,-1,-1,-1,-1,-1,-1,-1,-1,-1,-1,-1,-1,-1,-1,-1,-1,-1,-1,-1,-1,-1,-1,-1,-1,-1,-1,-1,-1,-1,-1,-1,-1,-1,-1,-1,-1,-1,-1,-1,-1,-1,-1,-1,-1,-1,-1,-1,-1,-1,-1,-1,-1,-1,-1,-1],"split_conditions":[8.88E1,8.37E1,5.3333335E0,2.6E0,8.42E1,8.113333E1,1E0,1.6666666E0,7.18E1,9.19E1,8.59E1,1.38E1,8.97E1,6.3333335E0,8.403333E1,7.24E1,7.92E1,7.1E0,7.7E0,6.6666665E0,8.163333E1,-2.8E0,6.666667E-1,7.5E1,7.6666665E0,7.95E1,7E0,1.6666666E0,3.6E0,3E0,8.37E1,7.436667E1,9.666667E0,8.25E1,-1.14E1,7.35E1,7.7566666E1,7.6666665E0,7.67E1,1E0,1.6666666E0,1.6666666E0,6E0,8.11E1,3.7E0,3.3333333E0,8.59E1,1.7742416E-2,6.6666665E0,-4.051127E-2,5E0,-1.8340897E-2,5E0,8.386667E1,8.42E1,1.38E1,4E0,6.6666665E0,1.38E1,-1.6666666E0,-2.0440495E-2,8.6833336E1,3E0,6.453821E-2,-4.683491E-2,-1.1432564E-2,5.073758E-2,1.3501385E-3,3.5601195E-2,4.4029873E-2,-1.0664079E-2,7.908821E-2,-3.8496282E-2,9.0297155E-2,-1.4399566E-2,1.1385385E-3,4.202031E-2,-5.324104E-2,6.7780623E-3,-6.0335393E-3,1.7188316E-2,5.980363E-2,1.8936353E-2,1.9396592E-2,-3.602651E-2,7.851244E-2,2.3540974E-2,6.6471495E-2,1.2886598E-3,-2.15422E-2,2.9198036E-3,3.3948574E-2,-3.5603188E-3,9.897353E-2,2.1299776E-2,-4.6804678E-2,3.035844E-3,-9.670303E-3,8.5333414E-2,8.291686E-2,5.9116967E-3,-3.711809E-3,3.1571113E-2,3.1571586E-2,-2.3916217E-2,-3.3794884E-2,5.9657436E-2,-1.5584503E-2,4.082101E-2,1.9038668E-2,-4.361078E-2,5.6243967E-2,-3.6492355E-2,4.290158E-3,6.851573E-2,-5.2041527E-2,-4.3360754E-3,-1.4923277E-2,4.621382E-2],"split_indices":[0,7,5,18,16,15,3,2,10,9,1,18,0,4,7,1,15,18,19,4,15,18,21,15,4,9,8,2,18,20,15,6,14,9,18,16,7,5,9,11,12,2,5,9,18,5,16,0,13,0,8,0,5,6,15,18,8,14,18,21,0,6,13,0,0,0,0,0,0,0,0,0,0,0,0,0,0,0,0,0,0,0,0,0,0,0,0,0,0,0,0,0,0,0,0,0,0,0,0,0,0,0,0,0,0,0,0,0,0,0,0,0,0,0,0,0,0,0,0],"split_type":[0,0,0,0,0,0,0,0,0,0,0,0,0,0,0,0,0,0,0,0,0,0,0,0,0,0,0,0,0,0,0,0,0,0,0,0,0,0,0,0,0,0,0,0,0,0,0,0,0,0,0,0,0,0,0,0,0,0,0,0,0,0,0,0,0,0,0,0,0,0,0,0,0,0,0,0,0,0,0,0,0,0,0,0,0,0,0,0,0,0,0,0,0,0,0,0,0,0,0,0,0,0,0,0,0,0,0,0,0,0,0,0,0,0,0,0,0,0,0],"sum_hessian":[2.9199175E3,2.6421582E3,2.7775916E2,2.0439392E3,5.98219E2,1.3244037E2,1.4531879E2,1.5133906E3,5.3054865E2,1.9187556E2,4.0634344E2,1.757202E1,1.1486835E2,5.497023E1,9.034856E1,1.0613368E3,4.520538E2,2.2034807E1,5.0851385E2,1.7745877E2,1.4416794E1,2.2401512E2,1.8232834E2,1.3711598E1,3.8604207E0,8.77721E0,1.0609113E2,3.2265995E1,2.2704235E1,4.1026077E1,4.9322483E1,3.1175428E1,1.0301614E3,2.367843E2,2.152695E2,1.0547761E1,1.1487047E1,5.0001514E2,8.498701E0,1.5652548E2,2.0933289E1,2.59826E0,1.1818535E1,9.280591E1,1.3120921E2,1.2161976E2,6.0708576E1,1.5461969E0,1.2165401E1,1.5211036E0,2.339317E0,1.2726109E0,7.5045996E0,8.145833E1,2.4632801E1,1.3505836E1,1.8760159E1,3.799109E0,1.8905125E1,3.9601246E1,1.4248296E0,4.758918E0,4.4563564E1,1.3905714E0,2.9784857E1,1.0255743E3,4.587072E0,2.0560555E2,3.1178747E1,7.51779E0,2.0775172E2,2.4175E0,8.13026E0,1.0299981E1,1.1870661E0,4.900931E2,9.922033E0,7.2806745E0,1.2180262E0,2.8373743E1,1.2815173E2,1.1219627E1,9.71366E0,1.4495378E0,1.148722E0,8.981455E0,2.8370798E0,3.1983006E0,8.9607605E1,7.934744E1,5.186177E1,2.0369413E1,1.0125034E2,2.9388142E0,5.7769764E1,9.417143E0,2.7482588E0,1.0023663E0,1.3369508E0,6.271432E0,1.233168E0,1.9536366E1,6.1921967E1,7.4799504E0,1.7152851E1,1.2441429E1,1.0644071E0,5.7575393E0,1.3002619E1,2.0339494E0,1.7651596E0,1.7857737E1,1.047389E0,2.5560803E0,3.7045166E1,3.1533136E0,1.605604E0,5.80499E0,3.8758575E1],"tree_param":{"num_deleted":"0","num_feature":"22","num_nodes":"119","size_leaf_vector":"1"}},{"base_weights":[7.109224E-4,-5.0392836E-2,4.8038644E-1,-1.0862896E-1,1.4734879E-1,2.7905437E-1,6.5948987E-1,-1.6383092E-1,5.9803672E-2,3.74383E-1,3.8758855E-2,-3.649443E-1,3.7805784E-1,1.453617E-1,7.647474E-1,-8.9790255E-2,-2.9686835E-1,7.46761E-1,2.6571097E-2,3.1524894E-1,1.0283741E0,-9.977574E-2,2.0745039E-1,-5.6629044E-1,3.1131646E-1,-3.2607454E-1,4.511302E-1,-2.7172473E-1,8.3196473E-1,8.3237404E-1,1.07251145E-1,-1.9329338E-1,7.8418456E-2,-3.81101E-1,-2.5869885E-2,9.745189E-2,1.7650505E0,4.423095E-2,-8.742561E-1,1.252113E0,2.7637863E-1,-1.6301362E-1,1.276742E0,-1.5417069E-1,3.52183E-1,6.4627945E-1,1.04895286E-1,-4.662357E-2,-8.6136335E-1,-3.97797E-2,1.0368776E0,4.7488016E-1,-5.061497E-2,4.086754E-2,5.931756E-1,-7.012595E-1,2.0111838E-1,1.0514433E0,-1.9298447E-2,5.273766E-1,1.0172143E0,-2.2338335E-1,1.0936683E0,-2.5981057E-3,-2.0860849E-2,9.220458E-3,-1.1821393E-2,-2.1424733E-2,2.3434182E-4,3.9211378E-2,-5.915796E-3,-2.8344726E-2,4.374776E-2,1.0556473E-1,-1.4247003E-2,7.6676615E-2,1.7077823E-3,-5.211872E-2,6.581077E-3,9.477215E-2,5.269005E-3,1.1965747E-2,6.770229E-2,1.8731816E-2,-3.540365E-2,9.4261706E-2,4.29251E-2,-4.73208E-3,-3.501555E-2,-3.5360284E-2,2.9726664E-2,8.844094E-2,2.1787021E-2,-3.5601023E-3,2.2704676E-2,-2.8239027E-2,3.260147E-2,-5.63724E-2,-3.552307E-4,6.3438327E-3,7.4784726E-2,-1.657912E-2,7.203525E-2,-2.4215369E-2,2.0879287E-2,8.218265E-2,2.5077496E-2,1.2587902E-2,-4.2653013E-2,-2.6121004E-2,4.654252E-2,1.4303085E-2,7.863163E-2,6.653879E-3,3.955139E-2,6.928893E-2,3.7587035E-2,6.944625E-2,-3.0327974E-2,9.183582E-2,-1.28041385E-2],"categories":[],"categories_nodes":[],"categories_segments":[],"categories_sizes":[],"default_left":[0,0,1,0,0,0,0,0,0,0,0,0,0,0,0,0,0,0,0,0,0,1,1,0,0,1,0,0,0,0,0,0,1,1,0,0,0,0,0,0,0,0,0,0,0,1,0,1,0,0,0,0,0,1,0,0,0,0,0,1,0,0,0,0,0,0,0,0,0,0,0,0,0,0,0,0,0,0,0,0,0,0,0,0,0,0,0,0,0,0,0,0,0,0,0,0,0,0,0,0,0,0,0,0,0,0,0,0,0,0,0,0,0,0,0,0,0,0,0,0,0],"id":4,"left_children":[1,3,5,7,9,11,13,15,17,19,21,23,25,27,29,31,33,35,37,39,41,43,45,47,49,51,53,55,57,59,61,63,65,67,69,71,73,75,77,79,81,83,85,87,89,91,93,95,97,-1,99,101,-1,103,105,107,109,111,-1,113,115,117,119,-1,-1,-1,-1,-1,-1,-1,-1,-1,-1,-1,-1,-1,-1,-1,-1,-1,-1,-1,-1,-1,-1,-1,-1,-1,-1,-1,-1,-1,-1,-1,-1,-1,-1,-1,-1,-1,-1,-1,-1,-1,-1,-1,-1,-1,-1,-1,-1,-1,-1,-1,-1,-1,-1,-1,-1,-1,-1],"loss_changes":[7.158624E1,3.040773E1,9.95472E0,1.8970924E1,1.479848E1,8.688177E0,7.90152E0,1.5105129E1,1.1488803E1,7.189432E0,9.54519E0,2.6786737E0,6.152956E0,7.785367E0,5.365097E0,1.7222672E1,1.2518288E1,1.51840925E1,7.7048187E0,6.1949043E0,4.844488E0,5.5724187E0,8.217539E0,2.1857553E0,4.7294655E0,6.8317327E0,6.1629734E0,3.6293526E0,3.1381574E0,5.7257996E0,4.3498917E0,1.9351416E1,1.2631325E1,7.656002E0,9.919312E0,8.368178E0,6.9788837E0,7.053726E0,1.7121749E0,4.8700285E0,6.6157265E0,1.3172386E0,1.7100296E0,6.4698E0,6.689295E0,7.42566E0,9.282129E0,2.6541948E0,2.0835829E0,0E0,1.2176428E0,5.1608243E0,0E0,5.816942E0,6.7593517E0,1.5489874E0,5.2131443E0,3.1121264E0,0E0,4.46811E0,5.6202164E0,7.180138E0,3.8098931E0,0E0,0E0,0E0,0E0,0E0,0E0,0E0,0E0,0E0,0E0,0E0,0E0,0E0,0E0,0E0,0E0,0E0,0E0,0E0,0E0,0E0,0E0,0E0,0E0,0E0,0E0,0E0,0E0,0E0,0E0,0E0,0E0,0E0,0E0,0E0,0E0,0E0,0E0,0E0,0E0,0E0,0E0,0E0,0E0,0E0,0E0,0E0,0E0,0E0,0E0,0E0,0E0,0E0,0E0,0E0,0E0,0E0,0E0],"parents":[2147483647,0,0,1,1,2,2,3,3,4,4,5,5,6,6,7,7,8,8,9,9,10,10,11,11,12,12,13,13,14,14,15,15,16,16,17,17,18,18,19,19,20,20,21,21,22,22,23,23,24,24,25,25,26,26,27,27,28,28,29,29,30,30,31,31,32,32,33,33,34,34,35,35,36,36,37,37,38,38,39,39,40,40,41,41,42,42,43,43,44,44,45,45,46,46,47,47,48,48,50,50,51,51,53,53,54,54,55,55,56,56,57,57,59,59,60,60,61,61,62,62],"right_children":[2,4,6,8,10,12,14,16,18,20,22,24,26,28,30,32,34,36,38,40,42,44,46,48,50,52,54,56,58,60,62,64,66,68,70,72,74,76,78,80,82,84,86,88,90,92,94,96,98,-1,100,102,-1,104,106,108,110,112,-1,114,116,118,120,-1,-1,-1,-1,-1,-1,-1,-1,-1,-1,-1,-1,-1,-1,-1,-1,-1,-1,-1,-1,-1,-1,-1,-1,-1,-1,-1,-1,-1,-1,-1,-1,-1,-1,-1,-1,-1,-1,-1,-1,-1,-1,-1,-1,-1,-1,-1,-1,-1,-1,-1,-1,-1,-1,-1,-1,-1,-1],"split_conditions":[8.88E1,8.37E1,5.3333335E0,2.8E0,8.42E1,8.113333E1,1.3333334E0,8.01E1,7.18E1,9.19E1,8.59E1,1.38E1,-1.7E0,5.3333335E0,9.04E1,7.7E1,8.54E1,1.3333334E0,7.7E0,7.96E1,8.163333E1,6.6666665E0,3.3333333E0,1.3333334E0,7.6666665E0,4E0,4E0,8.536667E1,8.9566666E1,1E0,8.333333E0,7.68E1,3.6666667E0,4.6666665E0,7.98E1,5E0,7.7333336E1,7.303333E1,7.67E1,8.41E1,7.8E0,1.6666666E0,7.6666665E0,9E0,4E0,3.3333333E0,6.666667E-1,3.6666667E0,1.6666666E0,-3.97797E-2,6E0,9.52E1,-5.061497E-2,3.6666667E0,8.173333E1,7.62E1,1.3333334E0,8.42E1,-1.9298447E-2,4.3333335E0,1.3333334E0,-4E-1,8.79E1,-2.5981057E-3,-2.0860849E-2,9.220458E-3,-1.1821393E-2,-2.1424733E-2,2.3434182E-4,3.9211378E-2,-5.915796E-3,-2.8344726E-2,4.374776E-2,1.0556473E-1,-1.4247003E-2,7.6676615E-2,1.7077823E-3,-5.211872E-2,6.581077E-3,9.477215E-2,5.269005E-3,1.1965747E-2,6.770229E-2,1.8731816E-2,-3.540365E-2,9.4261706E-2,4.29251E-2,-4.73208E-3,-3.501555E-2,-3.5360284E-2,2.9726664E-2,8.844094E-2,2.1787021E-2,-3.5601023E-3,2.2704676E-2,-2.8239027E-2,3.260147E-2,-5.63724E-2,-3.552307E-4,6.3438327E-3,7.4784726E-2,-1.657912E-2,7.203525E-2,-2.4215369E-2,2.0879287E-2,8.218265E-2,2.5077496E-2,1.2587902E-2,-4.2653013E-2,-2.6121004E-2,4.654252E-2,1.4303085E-2,7.863163E-2,6.653879E-3,3.955139E-2,6.928893E-2,3.7587035E-2,6.944625E-2,-3.0327974E-2,9.183582E-2,-1.28041385E-2],"split_indices":[0,7,5,18,16,15,2,10,10,9,1,18,18,13,15,10,9,3,19,15,15,5,5,11,4,4,14,15,6,3,5,7,5,4,15,8,7,15,9,9,18,2,13,8,4,14,21,5,3,0,8,9,0,4,15,9,3,15,0,13,11,18,9,0,0,0,0,0,0,0,0,0,0,0,0,0,0,0,0,0,0,0,0,0,0,0,0,0,0,0,0,0,0,0,0,0,0,0,0,0,0,0,0,0,0,0,0,0,0,0,0,0,0,0,0,0,0,0,0,0,0],"split_type":[0,0,0,0,0,0,0,0,0,0,0,0,0,0,0,0,0,0,0,0,0,0,0,0,0,0,0,0,0,0,0,0,0,0,0,0,0,0,0,0,0,0,0,0,0,0,0,0,0,0,0,0,0,0,0,0,0,0,0,0,0,0,0,0,0,0,0,0,0,0,0,0,0,0,0,0,0,0,0,0,0,0,0,0,0,0,0,0,0,0,0,0,0,0,0,0,0,0,0,0,0,0,0,0,0,0,0,0,0,0,0,0,0,0,0,0,0,0,0,0,0],"sum_hessian":[2.9183237E3,2.6381543E3,2.8016922E2,2.0383102E3,5.998442E2,1.3310384E2,1.4706538E2,1.5351942E3,5.0311597E2,1.932854E2,4.065588E2,1.737788E1,1.1572596E2,2.5396715E1,1.2166868E2,9.8736237E2,5.478319E2,2.2225124E1,4.8089084E2,1.7861685E2,1.4668546E1,2.2345737E2,1.8310143E2,1.3516243E1,3.8616364E0,1.055496E1,1.05171E2,1.6175148E1,9.221568E0,1.100804E2,1.1588274E1,6.1115436E2,3.76208E2,4.1761963E2,1.3021227E2,1.4240448E1,7.984676E0,4.725773E2,8.313525E0,5.872143E0,1.7274472E2,2.5897105E0,1.2078835E1,2.000406E2,2.3416765E1,3.368082E1,1.4942061E2,5.3145475E0,8.201695E0,1.4907846E0,2.3708518E0,5.0124555E0,5.542505E0,2.7379593E1,7.7791405E1,8.222598E0,7.9525495E0,7.9293523E0,1.2922158E0,4.2992813E1,6.7087585E1,9.258488E0,2.3297868E0,3.7543036E2,2.3572398E2,2.817674E2,9.444063E1,3.7183002E2,4.5789623E1,1.2570947E1,1.1764133E2,7.8250904E0,6.415358E0,6.8053465E0,1.1793294E0,2.1595001E0,4.7041782E2,7.0919266E0,1.2215993E0,3.3434966E0,2.5286462E0,1.6818256E2,4.5621557E0,1.4611206E0,1.1285897E0,3.4915218E0,8.587313E0,1.814373E2,1.860331E1,4.002496E0,1.941427E1,4.150429E0,2.9530392E1,9.985884E1,4.9561764E1,3.1614609E0,2.153087E0,6.009926E0,2.1917694E0,1.2225735E0,1.1482782E0,3.089452E0,1.9230034E0,1.1317086E1,1.6062508E1,4.8819265E0,7.290948E1,1.0393015E0,7.1832967E0,4.135873E0,3.8166764E0,3.8396208E0,4.089731E0,1.7830885E1,2.5161926E1,2.6322834E1,4.0764755E1,1.2738172E0,7.9846706E0,1.2699102E0,1.0598766E0],"tree_param":{"num_deleted":"0","num_feature":"22","num_nodes":"121","size_leaf_vector":"1"}},{"base_weights":[9.195328E-4,-4.7809478E-2,4.541587E-1,-1.0346714E-1,1.401881E-1,2.6444128E-1,6.2192464E-1,-1.6864976E-1,3.0591136E-2,3.547721E-1,3.6941625E-2,-3.513341E-1,3.5750428E-1,1.4008354E-1,7.1936476E-1,-2.2071835E-1,4.224717E-3,1.7406927E0,1.5365888E-2,7.62941E-2,4.7821227E-1,3.911707E-1,-2.7066663E-2,-5.490415E-1,3.0416885E-1,5.567726E-1,1.0228104E-1,-2.6072735E-1,7.874916E-1,9.692466E-1,5.441819E-1,-7.6689726E-1,-2.0372462E-1,1.4335665E-1,-1.5296187E-1,9.618602E-2,2.6810179E-2,-6.618685E-1,3.6856223E-2,-9.8182976E-1,2.841612E-1,1.4622352E0,4.3250412E-1,-7.308762E-2,6.0234344E-1,-5.875894E-2,5.493578E-1,-4.3835085E-2,-8.412397E-1,-3.9072677E-2,1.0009562E0,2.2280882E-3,9.1881746E-1,-3.6216512E-1,4.031617E-1,-6.7945564E-1,1.9271584E-1,2.0715305E-1,1.3563404E0,6.8951584E-2,1.1727037E0,-7.13898E-1,6.2036234E-1,6.1838735E-2,-4.51844E-2,-5.9769414E-3,-1.4818241E-2,-5.606825E-3,1.861864E-2,-1.4466027E-2,9.999257E-3,1.9804316E-3,-5.820909E-2,4.1071113E-2,9.843918E-4,5.5213883E-3,-5.7194382E-2,8.862068E-2,8.567746E-3,9.32711E-2,2.924418E-3,1.8939527E-3,2.973846E-2,-2.030539E-2,3.0704373E-2,2.3087092E-2,9.194864E-2,-1.0710017E-2,3.5946958E-3,5.394752E-2,-3.3594777E-3,3.889661E-2,-2.2636028E-2,1.1940228E-2,-5.1214576E-2,-9.594221E-3,7.896023E-2,5.3818006E-2,-1.1292508E-2,5.6855243E-2,-2.794321E-3,-4.5335542E-2,8.624132E-3,7.124379E-2,5.560669E-3,1.2234969E-2,-4.149146E-2,6.112809E-2,-1.5535593E-2,-2.770116E-2,5.124535E-2,8.2655184E-2,7.965731E-3,5.7824086E-2,-9.275419E-3,2.8450221E-3,6.5562926E-2,-5.0813336E-2,3.1164307E-3,2.4312204E-2,5.711611E-2],"categories":[],"categories_nodes":[],"categories_segments":[],"categories_sizes":[],"default_left":[0,0,1,0,0,0,0,0,0,0,0,0,0,0,0,0,0,0,0,1,0,0,0,0,0,0,0,0,0,0,0,0,0,0,1,0,0,0,0,0,1,0,0,0,0,0,0,0,0,0,0,0,0,0,0,0,0,0,0,0,0,0,1,0,0,0,0,0,0,0,0,0,0,0,0,0,0,0,0,0,0,0,0,0,0,0,0,0,0,0,0,0,0,0,0,0,0,0,0,0,0,0,0,0,0,0,0,0,0,0,0,0,0,0,0,0,0,0,0,0,0],"id":5,"left_children":[1,3,5,7,9,11,13,15,17,19,21,23,25,27,29,31,33,35,37,39,41,43,45,47,49,51,53,55,57,59,61,63,65,67,69,-1,-1,71,73,75,77,79,81,83,85,87,89,91,93,-1,95,97,99,101,103,105,107,109,111,113,115,117,119,-1,-1,-1,-1,-1,-1,-1,-1,-1,-1,-1,-1,-1,-1,-1,-1,-1,-1,-1,-1,-1,-1,-1,-1,-1,-1,-1,-1,-1,-1,-1,-1,-1,-1,-1,-1,-1,-1,-1,-1,-1,-1,-1,-1,-1,-1,-1,-1,-1,-1,-1,-1,-1,-1,-1,-1,-1,-1],"loss_changes":[6.445529E1,2.7586922E1,8.852619E0,1.7776596E1,1.3332112E1,7.844371E0,6.9235687E0,1.2319714E1,1.7318834E1,6.6858826E0,9.256839E0,2.5241609E0,5.919156E0,7.057813E0,4.909569E0,9.606026E0,6.9713626E0,2.625618E-1,9.649342E0,1.3751098E1,5.4533806E0,6.1690254E0,6.358975E0,2.078547E0,4.4571147E0,1.3200842E1,7.516692E0,3.3703785E0,3.134615E0,9.060856E0,7.6592712E0,9.717276E0,7.9305344E0,9.934963E0,7.261855E0,0E0,0E0,7.231764E0,8.630507E0,1.9462271E0,8.421151E0,3.052435E0,8.348013E0,4.9234247E0,6.6361885E0,6.7006187E0,5.997309E0,2.4710777E0,2.0287042E0,0E0,2.6464005E0,6.852225E0,8.528152E0,6.3468466E0,9.530455E0,1.4664478E0,5.030484E0,4.490352E0,1.5286579E0,3.0544047E0,6.209244E0,1.1814818E0,4.4520645E0,0E0,0E0,0E0,0E0,0E0,0E0,0E0,0E0,0E0,0E0,0E0,0E0,0E0,0E0,0E0,0E0,0E0,0E0,0E0,0E0,0E0,0E0,0E0,0E0,0E0,0E0,0E0,0E0,0E0,0E0,0E0,0E0,0E0,0E0,0E0,0E0,0E0,0E0,0E0,0E0,0E0,0E0,0E0,0E0,0E0,0E0,0E0,0E0,0E0,0E0,0E0,0E0,0E0,0E0,0E0,0E0,0E0,0E0],"parents":[2147483647,0,0,1,1,2,2,3,3,4,4,5,5,6,6,7,7,8,8,9,9,10,10,11,11,12,12,13,13,14,14,15,15,16,16,17,17,18,18,19,19,20,20,21,21,22,22,23,23,24,24,25,25,26,26,27,27,28,28,29,29,30,30,31,31,32,32,33,33,34,34,37,37,38,38,39,39,40,40,41,41,42,42,43,43,44,44,45,45,46,46,47,47,48,48,50,50,51,51,52,52,53,53,54,54,55,55,56,56,57,57,58,58,59,59,60,60,61,61,62,62],"right_children":[2,4,6,8,10,12,14,16,18,20,22,24,26,28,30,32,34,36,38,40,42,44,46,48,50,52,54,56,58,60,62,64,66,68,70,-1,-1,72,74,76,78,80,82,84,86,88,90,92,94,-1,96,98,100,102,104,106,108,110,112,114,116,118,120,-1,-1,-1,-1,-1,-1,-1,-1,-1,-1,-1,-1,-1,-1,-1,-1,-1,-1,-1,-1,-1,-1,-1,-1,-1,-1,-1,-1,-1,-1,-1,-1,-1,-1,-1,-1,-1,-1,-1,-1,-1,-1,-1,-1,-1,-1,-1,-1,-1,-1,-1,-1,-1,-1,-1,-1,-1,-1],"split_conditions":[8.88E1,8.37E1,5.3333335E0,1.6666666E0,8.42E1,8.113333E1,1.3333334E0,2.6E0,6.93E1,1.3333334E0,-8.2E0,1.38E1,8.43E1,5.3333335E0,1.3333334E0,7.24E1,7.7433334E1,-6.666667E-1,0E0,3E0,-1.3E1,1E0,2.6666667E0,1.3333334E0,7.6666665E0,8.386667E1,1.3333334E0,8.536667E1,6E0,6.666667E-1,3E0,7.436667E1,7.703333E1,5E0,4E0,9.618602E-2,2.6810179E-2,-4.4E0,7.426667E1,7.92E1,2E0,5E0,8.2E1,8.823333E1,1E1,8.6166664E1,5E0,6.4E0,7.7333336E1,-3.9072677E-2,5E0,8.35E1,9.48E1,8.7566666E1,8.6333336E1,7.62E1,8.73E1,8.87E1,2E0,7.79E1,3.5E0,1.2E1,6.6666665E0,6.1838735E-2,-4.51844E-2,-5.9769414E-3,-1.4818241E-2,-5.606825E-3,1.861864E-2,-1.4466027E-2,9.999257E-3,1.9804316E-3,-5.820909E-2,4.1071113E-2,9.843918E-4,5.5213883E-3,-5.7194382E-2,8.862068E-2,8.567746E-3,9.32711E-2,2.924418E-3,1.8939527E-3,2.973846E-2,-2.030539E-2,3.0704373E-2,2.3087092E-2,9.194864E-2,-1.0710017E-2,3.5946958E-3,5.394752E-2,-3.3594777E-3,3.889661E-2,-2.2636028E-2,1.1940228E-2,-5.1214576E-2,-9.594221E-3,7.896023E-2,5.3818006E-2,-1.1292508E-2,5.6855243E-2,-2.794321E-3,-4.5335542E-2,8.624132E-3,7.124379E-2,5.560669E-3,1.2234969E-2,-4.149146E-2,6.112809E-2,-1.5535593E-2,-2.770116E-2,5.124535E-2,8.2655184E-2,7.965731E-3,5.7824086E-2,-9.275419E-3,2.8450221E-3,6.5562926E-2,-5.0813336E-2,3.1164307E-3,2.4312204E-2,5.711611E-2],"split_indices":[0,7,5,2,16,15,2,18,10,11,18,18,7,13,11,1,7,21,19,14,18,2,2,11,4,6,12,15,18,3,13,6,16,8,13,0,0,18,15,0,5,4,0,6,13,6,14,18,15,0,8,1,0,6,6,9,15,9,12,15,18,18,13,0,0,0,0,0,0,0,0,0,0,0,0,0,0,0,0,0,0,0,0,0,0,0,0,0,0,0,0,0,0,0,0,0,0,0,0,0,0,0,0,0,0,0,0,0,0,0,0,0,0,0,0,0,0,0,0,0,0],"split_type":[0,0,0,0,0,0,0,0,0,0,0,0,0,0,0,0,0,0,0,0,0,0,0,0,0,0,0,0,0,0,0,0,0,0,0,0,0,0,0,0,0,0,0,0,0,0,0,0,0,0,0,0,0,0,0,0,0,0,0,0,0,0,0,0,0,0,0,0,0,0,0,0,0,0,0,0,0,0,0,0,0,0,0,0,0,0,0,0,0,0,0,0,0,0,0,0,0,0,0,0,0,0,0,0,0,0,0,0,0,0,0,0,0,0,0,0,0,0,0,0,0],"sum_hessian":[2.9164087E3,2.6341033E3,2.8230533E2,2.0327476E3,6.013558E2,1.3369414E2,1.4861118E2,1.3675507E3,6.6519684E2,1.9455762E2,4.0679816E2,1.7188269E1,1.1650587E2,2.5407726E1,1.2320345E2,1.0507848E3,3.1676584E2,4.869987E0,6.6032684E2,6.0250973E1,1.3430664E2,6.1475357E1,3.4532278E2,1.333015E1,3.858119E0,6.476128E1,5.1744595E1,1.6061384E1,9.346342E0,4.890802E1,7.429543E1,3.037586E1,1.020409E3,1.6807983E2,1.48686E2,3.7092273E0,1.1607594E0,1.9392853E1,6.40934E2,9.281451E0,5.0969524E1,4.586035E0,1.2972061E2,1.9424639E1,4.205072E1,3.281774E2,1.7145393E1,5.3060627E0,8.024087E0,1.4607315E0,2.3973875E0,2.5977566E1,3.8783714E1,2.0262798E1,3.1481794E1,8.091199E0,7.970186E0,5.3017097E0,4.0446324E0,9.262127E0,3.9645893E1,3.763989E0,7.053144E1,1.4273334E0,2.8948528E1,5.3579834E2,4.8461066E2,7.9688614E1,8.839123E1,1.0738053E2,4.130546E1,8.476553E0,1.0916301E1,1.2721855E1,6.2821216E2,1.240328E0,8.041123E0,2.5546076E0,4.8414917E1,3.307237E0,1.2787981E0,3.8157024E1,9.156359E1,1.3359399E1,6.0652404E0,3.8990936E1,3.059783E0,1.4957925E2,1.7859814E2,8.819641E0,8.325751E0,1.4630653E0,3.8429976E0,1.1187359E0,6.905351E0,1.0008811E0,1.3965063E0,3.898476E0,2.2079088E1,3.155114E1,7.2325726E0,9.693717E0,1.0569081E1,6.134094E0,2.53477E1,1.0445291E0,7.0466695E0,2.1478739E0,5.8223124E0,2.912874E0,2.3888357E0,2.9357905E0,1.1088417E0,1.0840756E0,8.178052E0,4.5350556E0,3.5110836E1,2.4862602E0,1.2777289E0,5.764982E1,1.2881622E1],"tree_param":{"num_deleted":"0","num_feature":"22","num_nodes":"121","size_leaf_vector":"1"}},{"base_weights":[1.1024995E-3,-4.5358025E-2,4.2979208E-1,-9.852263E-2,1.3335301E-1,2.510875E-1,5.8693E-1,-1.13382235E-1,4.4319138E-1,3.3563694E-1,3.5444457E-2,-3.3755666E-1,3.3852816E-1,3.113663E-1,7.467431E-1,-4.906893E-2,-2.3504923E-1,1.4931021E0,2.222215E-1,2.8150892E-1,9.2850405E-1,3.7097597E-1,-2.5635177E-2,2.7815891E-2,-4.6979615E-1,1.0413567E0,2.7020577E-1,4.557675E-2,6.63867E-1,1.0321258E0,4.9091724E-1,-1.51129E-1,1.1499506E-1,-3.3905682E-1,-2.8770827E-2,4.1640761E-1,1.0186279E-1,4.918949E-1,-1.6048662E-1,2.4849406E-1,1.257595E0,-1.8423647E-1,1.1596911E0,1.6511714E-1,8.2095945E-1,-5.6251947E-2,5.290296E-1,-7.6739615E-1,1.5675813E-1,-1.9382786E-2,1.2943165E0,3.9573282E-1,-1.4992991E-1,-4.4347367E-1,3.8891342E-1,-2.9502404E-1,8.583452E-1,1.0933621E0,-2.2076925E-2,-7.955524E-1,6.378629E-1,-1.4104216E-3,-1.7763292E-2,-6.3937604E-3,1.1886851E-2,4.581394E-3,-1.8814338E-2,-4.0702247E-3,3.531849E-2,6.1646778E-2,-1.8112138E-2,3.640176E-2,-2.9349456E-2,-3.13757E-2,5.2642334E-2,5.7762343E-2,1.04837995E-2,-2.3691259E-4,9.97901E-2,1.6593754E-2,-3.5230756E-2,8.720978E-2,3.8389187E-2,-1.9512517E-2,2.1069491E-2,1.3370561E-2,6.189337E-2,-9.402874E-3,4.0387334E-3,7.7038268E-3,7.6468766E-2,-5.1871028E-2,-1.6327087E-3,5.911807E-2,-1.4822011E-2,7.387375E-2,5.039854E-3,-4.231152E-3,2.71343E-2,2.7515864E-2,-2.3868768E-2,-3.285484E-2,5.5364E-2,-1.7074121E-2,3.541188E-2,1.6362017E-2,-4.4030517E-2,4.9057264E-2,-3.6630973E-2,3.881406E-2,7.269075E-2,-5.136733E-3,-5.2116822E-2,-1.6158177E-2,3.912473E-2],"categories":[],"categories_nodes":[],"categories_segments":[],"categories_sizes":[],"default_left":[0,0,1,0,0,0,0,0,0,0,0,0,0,0,0,0,1,0,0,0,0,0,0,0,0,0,0,0,0,0,0,0,0,0,0,0,0,0,0,0,1,0,0,0,0,0,0,0,1,0,1,0,0,0,0,0,0,0,0,0,0,0,0,0,0,0,0,0,0,0,0,0,0,0,0,0,0,0,0,0,0,0,0,0,0,0,0,0,0,0,0,0,0,0,0,0,0,0,0,0,0,0,0,0,0,0,0,0,0,0,0,0,0,0,0],"id":6,"left_children":[1,3,5,7,9,11,13,15,17,19,21,23,25,27,29,31,33,35,37,39,41,43,45,-1,47,49,51,53,55,57,59,61,63,65,67,69,-1,71,73,75,77,79,81,83,85,87,89,91,93,-1,95,97,99,101,103,105,107,109,-1,111,113,-1,-1,-1,-1,-1,-1,-1,-1,-1,-1,-1,-1,-1,-1,-1,-1,-1,-1,-1,-1,-1,-1,-1,-1,-1,-1,-1,-1,-1,-1,-1,-1,-1,-1,-1,-1,-1,-1,-1,-1,-1,-1,-1,-1,-1,-1,-1,-1,-1,-1,-1,-1,-1,-1],"loss_changes":[5.808939E1,2.5014254E1,7.8609123E0,1.6380093E1,1.1945613E1,7.0722876E0,6.417343E0,1.5444605E1,1.2280816E1,6.0539856E0,8.370195E0,2.3872042E0,5.394349E0,5.3234916E0,6.418705E0,2.1675806E1,1.4639389E1,4.5873394E0,4.835445E0,5.5450354E0,4.337161E0,5.690255E0,5.9066267E0,0E0,3.142628E0,4.1605654E0,5.81183E0,5.822938E0,4.8203335E0,4.4472275E0,1.0323628E1,2.0010168E1,1.4834904E1,7.3114014E0,8.955636E0,3.2260544E0,0E0,7.378016E0,1.18833885E1,5.990264E0,5.321703E0,1.2061582E0,1.7324085E0,6.4840446E0,4.166586E0,5.954769E0,6.5905294E0,2.1800065E0,3.162549E0,0E0,1.7813215E0,5.9937086E0,6.1825085E0,5.4806595E0,4.9774685E0,2.0641181E0,4.7467403E0,3.725048E0,0E0,8.791375E-1,6.8075886E0,0E0,0E0,0E0,0E0,0E0,0E0,0E0,0E0,0E0,0E0,0E0,0E0,0E0,0E0,0E0,0E0,0E0,0E0,0E0,0E0,0E0,0E0,0E0,0E0,0E0,0E0,0E0,0E0,0E0,0E0,0E0,0E0,0E0,0E0,0E0,0E0,0E0,0E0,0E0,0E0,0E0,0E0,0E0,0E0,0E0,0E0,0E0,0E0,0E0,0E0,0E0,0E0,0E0,0E0],"parents":[2147483647,0,0,1,1,2,2,3,3,4,4,5,5,6,6,7,7,8,8,9,9,10,10,11,11,12,12,13,13,14,14,15,15,16,16,17,17,18,18,19,19,20,20,21,21,22,22,24,24,25,25,26,26,27,27,28,28,29,29,30,30,31,31,32,32,33,33,34,34,35,35,37,37,38,38,39,39,40,40,41,41,42,42,43,43,44,44,45,45,46,46,47,47,48,48,50,50,51,51,52,52,53,53,54,54,55,55,56,56,57,57,59,59,60,60],"right_children":[2,4,6,8,10,12,14,16,18,20,22,24,26,28,30,32,34,36,38,40,42,44,46,-1,48,50,52,54,56,58,60,62,64,66,68,70,-1,72,74,76,78,80,82,84,86,88,90,92,94,-1,96,98,100,102,104,106,108,110,-1,112,114,-1,-1,-1,-1,-1,-1,-1,-1,-1,-1,-1,-1,-1,-1,-1,-1,-1,-1,-1,-1,-1,-1,-1,-1,-1,-1,-1,-1,-1,-1,-1,-1,-1,-1,-1,-1,-1,-1,-1,-1,-1,-1,-1,-1,-1,-1,-1,-1,-1,-1,-1,-1,-1,-1],"split_conditions":[8.88E1,8.37E1,5.3333335E0,8.9E0,8.42E1,8.113333E1,1E0,8.01E1,7.18E1,9.19E1,-8.2E0,7.5E1,8.97E1,6.3333335E0,8.403333E1,7.7E1,3.6666667E0,1.3333334E0,6E0,7.8E0,8.163333E1,5.3333335E0,1.6666666E0,2.7815891E-2,8.526667E1,7.95E1,7E0,1.6666666E0,3.6E0,3E0,8.37E1,7.56E1,9.333333E0,-9.2E0,9.36E1,-1E0,1.0186279E-1,6.666667E-1,1.6666666E0,7.96E1,3.3333333E0,1.6666666E0,7.6666665E0,5E0,-3.3333334E-1,1.6666666E0,2E0,8.03E1,4E0,-1.9382786E-2,5E0,8.386667E1,8.42E1,1.38E1,4E0,6.6666665E0,1.38E1,8.4E1,-2.2076925E-2,3.7E0,3E0,-1.4104216E-3,-1.7763292E-2,-6.3937604E-3,1.1886851E-2,4.581394E-3,-1.8814338E-2,-4.0702247E-3,3.531849E-2,6.1646778E-2,-1.8112138E-2,3.640176E-2,-2.9349456E-2,-3.13757E-2,5.2642334E-2,5.7762343E-2,1.04837995E-2,-2.3691259E-4,9.97901E-2,1.6593754E-2,-3.5230756E-2,8.720978E-2,3.8389187E-2,-1.9512517E-2,2.1069491E-2,1.3370561E-2,6.189337E-2,-9.402874E-3,4.0387334E-3,7.7038268E-3,7.6468766E-2,-5.1871028E-2,-1.6327087E-3,5.911807E-2,-1.4822011E-2,7.387375E-2,5.039854E-3,-4.231152E-3,2.71343E-2,2.7515864E-2,-2.3868768E-2,-3.285484E-2,5.5364E-2,-1.7074121E-2,3.541188E-2,1.6362017E-2,-4.4030517E-2,4.9057264E-2,-3.6630973E-2,3.881406E-2,7.269075E-2,-5.136733E-3,-5.2116822E-2,-1.6158177E-2,3.912473E-2],"split_indices":[0,7,5,18,16,15,3,10,10,9,18,15,0,4,7,10,4,3,8,18,15,5,20,0,6,9,8,2,18,20,15,16,14,18,9,21,0,21,11,15,13,2,13,14,20,3,12,15,13,0,5,6,15,18,8,14,18,1,0,18,13,0,0,0,0,0,0,0,0,0,0,0,0,0,0,0,0,0,0,0,0,0,0,0,0,0,0,0,0,0,0,0,0,0,0,0,0,0,0,0,0,0,0,0,0,0,0,0,0,0,0,0,0,0,0],"split_type":[0,0,0,0,0,0,0,0,0,0,0,0,0,0,0,0,0,0,0,0,0,0,0,0,0,0,0,0,0,0,0,0,0,0,0,0,0,0,0,0,0,0,0,0,0,0,0,0,0,0,0,0,0,0,0,0,0,0,0,0,0,0,0,0,0,0,0,0,0,0,0,0,0,0,0,0,0,0,0,0,0,0,0,0,0,0,0,0,0,0,0,0,0,0,0,0,0,0,0,0,0,0,0,0,0,0,0,0,0,0,0,0,0,0,0],"sum_hessian":[2.9145737E3,2.6303914E3,2.8418237E2,2.0276392E3,6.0275214E2,1.3418208E2,1.5000029E2,1.9742742E3,5.3365044E1,1.9579723E2,4.069549E2,1.6984343E1,1.1719775E2,5.6142612E1,9.385768E1,1.2924742E3,6.817999E2,8.277674E0,4.508737E1,1.8076814E2,1.5029084E1,6.189125E1,3.4506363E2,1.7755557E0,1.5208786E1,9.121685E0,1.08076065E2,3.265196E1,2.3490652E1,4.293155E1,5.0926132E1,7.968517E2,4.956225E2,4.5283328E2,2.2896667E2,3.371622E0,4.9060516E0,2.6282345E1,1.8805027E1,1.7606747E2,4.7006726E0,2.6202908E0,1.2408793E1,4.3402416E1,1.8488834E1,3.2786453E2,1.719911E1,1.0158789E1,5.049998E0,1.291772E0,7.829913E0,8.325841E1,2.4817654E1,1.334773E1,1.930423E1,3.8737593E0,1.9616894E1,4.1466522E1,1.4650263E0,4.768171E0,4.6157963E1,4.9807507E2,2.9877664E2,1.6637447E2,3.2924802E2,3.5913704E1,4.1691956E2,2.1449854E2,1.4468128E1,1.360995E0,2.0106273E0,2.1829597E1,4.452748E0,1.392712E1,4.877907E0,6.047323E0,1.7002014E2,2.1012015E0,2.599471E0,1.4974062E0,1.1228845E0,3.5956242E0,8.8131695E0,1.3539098E1,2.986332E1,8.647955E0,9.840879E0,1.6692622E2,1.6093831E2,1.3349447E1,3.8496625E0,7.127438E0,3.0313504E0,1.0545617E0,3.9954362E0,6.581931E0,1.2479821E0,1.9603441E1,6.365497E1,7.6905823E0,1.712707E1,1.2238145E1,1.1095853E0,5.851226E0,1.3453004E1,2.0919526E0,1.7818067E0,1.8567078E1,1.0498153E0,2.3738237E1,1.7728283E1,1.6243346E0,3.143836E0,5.876475E0,4.0281487E1],"tree_param":{"num_deleted":"0","num_feature":"22","num_nodes":"115","size_leaf_vector":"1"}},{"base_weights":[1.2519892E-3,-4.297272E-2,4.0633133E-1,-9.379205E-2,1.2709069E-1,2.382967E-1,5.5343235E-1,-1.4611474E-1,5.3320695E-2,3.184301E-1,3.399874E-2,-4.545464E-3,4.4315094E-1,2.948294E-1,7.024549E-1,-6.187013E-1,-1.2910765E-1,6.732609E-1,2.4571728E-2,5.9675016E-2,4.3230155E-1,-9.224111E-2,1.8596669E-1,9.168706E-2,-9.634149E-1,-4.5918398E-2,4.984053E-1,4.4355433E-2,6.230505E-1,9.691802E-1,4.6203622E-1,1.3093385E0,-7.7403516E-1,1.1873605E-1,-1.34275E-1,-1.3167231E-1,1.3229189E0,4.032989E-2,-8.472038E-1,-9.611835E-1,2.5545368E-1,1.3465424E0,3.8956594E-1,-1.4413111E-1,3.3382055E-1,5.9711707E-1,8.901213E-2,3.9773297E-1,-2.5933203E-1,-5.388416E-2,-1.0443899E-2,-7.2009224E-1,5.5247396E-1,-4.2499265E-1,3.6786345E-1,-2.8745338E-1,8.045843E-1,1.0263778E0,-2.1538528E-2,-2.5330222E-1,7.175091E-1,1.02251746E-1,-1.4943681E-2,-4.6282787E-2,3.8560595E-2,-3.5286192E-3,-1.2515822E-2,7.145269E-2,-3.681301E-2,7.528733E-2,-1.4171821E-2,9.4688527E-4,3.2817353E-2,-5.7121143E-3,-5.5976737E-2,5.058326E-3,-5.6098666E-2,8.246142E-2,7.409548E-3,8.569399E-2,2.2791587E-3,1.1466435E-3,2.6939023E-2,-4.355289E-3,-3.373098E-2,-5.7315878E-3,4.430941E-2,8.1232116E-2,2.0040875E-2,-3.7557897E-3,2.0520514E-2,-4.0006906E-2,2.7630849E-2,5.8014542E-2,-2.3921832E-2,-4.234559E-2,-1.026618E-2,6.853386E-2,2.3296533E-2,-3.1801827E-2,5.33903E-2,-1.6444862E-2,3.3361416E-2,1.573718E-2,-4.319377E-2,4.6007205E-2,-3.5972003E-2,3.876008E-2,7.223902E-2,-4.3849077E-2,9.2674475E-3,4.8762612E-2,4.6679764E-3],"categories":[],"categories_nodes":[],"categories_segments":[],"categories_sizes":[],"default_left":[0,0,1,0,0,0,0,0,0,0,0,0,0,0,0,0,0,0,0,1,0,1,1,0,0,0,0,0,0,0,0,0,0,0,0,0,0,0,0,0,1,0,0,0,0,1,0,1,0,0,0,0,0,0,0,0,0,0,0,0,0,0,0,0,0,0,0,0,0,0,0,0,0,0,0,0,0,0,0,0,0,0,0,0,0,0,0,0,0,0,0,0,0,0,0,0,0,0,0,0,0,0,0,0,0,0,0,0,0,0,0,0,0],"id":7,"left_children":[1,3,5,7,9,11,13,15,17,19,21,23,25,27,29,31,33,35,37,39,41,43,45,47,49,-1,51,53,55,57,59,61,63,-1,65,67,69,71,73,75,77,79,81,83,85,87,89,91,93,-1,-1,95,97,99,101,103,105,107,-1,109,111,-1,-1,-1,-1,-1,-1,-1,-1,-1,-1,-1,-1,-1,-1,-1,-1,-1,-1,-1,-1,-1,-1,-1,-1,-1,-1,-1,-1,-1,-1,-1,-1,-1,-1,-1,-1,-1,-1,-1,-1,-1,-1,-1,-1,-1,-1,-1,-1,-1,-1,-1,-1],"loss_changes":[5.2207844E1,2.271969E1,6.9585E0,1.5583492E1,1.0764324E1,6.7504177E0,5.65818E0,1.1919096E1,9.458167E0,5.8043957E0,7.8455954E0,5.9072976E0,5.9940605E0,4.6883254E0,5.6974983E0,1.646584E1,1.897974E1,1.2474766E1,7.027813E0,1.25625305E1,4.837572E0,4.990836E0,7.3411984E0,6.3579197E0,2.782917E-1,0E0,5.0998974E0,5.25994E0,4.3224792E0,4.0069695E0,9.741838E0,5.602278E0,1.2048227E1,0E0,1.0629152E1,1.1823461E1,4.2761803E0,6.589781E0,1.6854033E0,1.8433361E0,7.6044226E0,2.6562395E0,7.237438E0,5.9913235E0,6.1887736E0,6.452812E0,8.010612E0,6.2861605E0,9.17864E0,0E0,0E0,5.2412868E-2,4.240446E0,5.1461077E0,4.48158E0,1.9559172E0,4.342923E0,3.4060936E0,0E0,4.130883E0,6.1518745E0,0E0,0E0,0E0,0E0,0E0,0E0,0E0,0E0,0E0,0E0,0E0,0E0,0E0,0E0,0E0,0E0,0E0,0E0,0E0,0E0,0E0,0E0,0E0,0E0,0E0,0E0,0E0,0E0,0E0,0E0,0E0,0E0,0E0,0E0,0E0,0E0,0E0,0E0,0E0,0E0,0E0,0E0,0E0,0E0,0E0,0E0,0E0,0E0,0E0,0E0,0E0,0E0],"parents":[2147483647,0,0,1,1,2,2,3,3,4,4,5,5,6,6,7,7,8,8,9,9,10,10,11,11,12,12,13,13,14,14,15,15,16,16,17,17,18,18,19,19,20,20,21,21,22,22,23,23,24,24,26,26,27,27,28,28,29,29,30,30,31,31,32,32,34,34,35,35,36,36,37,37,38,38,39,39,40,40,41,41,42,42,43,43,44,44,45,45,46,46,47,47,48,48,51,51,52,52,53,53,54,54,55,55,56,56,57,57,59,59,60,60],"right_children":[2,4,6,8,10,12,14,16,18,20,22,24,26,28,30,32,34,36,38,40,42,44,46,48,50,-1,52,54,56,58,60,62,64,-1,66,68,70,72,74,76,78,80,82,84,86,88,90,92,94,-1,-1,96,98,100,102,104,106,108,-1,110,112,-1,-1,-1,-1,-1,-1,-1,-1,-1,-1,-1,-1,-1,-1,-1,-1,-1,-1,-1,-1,-1,-1,-1,-1,-1,-1,-1,-1,-1,-1,-1,-1,-1,-1,-1,-1,-1,-1,-1,-1,-1,-1,-1,-1,-1,-1,-1,-1,-1,-1,-1,-1],"split_conditions":[8.88E1,8.37E1,5.3333335E0,2.6E0,8.42E1,1.3333334E0,1E0,7.25E1,7.18E1,1.3333334E0,8.59E1,9E0,7.88E1,6.3333335E0,8.403333E1,7.436667E1,7.05E1,7.1E0,7.7E0,3E0,-1.3E1,6.6666665E0,3.3333333E0,8.45E1,1.1E1,-4.5918398E-2,-1.3333334E0,1.6666666E0,3.6E0,3E0,8.573333E1,7.773333E1,2.4E0,1.1873605E-1,8.01E1,7.35E1,7.7566666E1,2.3333333E0,-6.666667E-1,7.92E1,2E0,5E0,8.2E1,9E0,1.6666666E0,3.3333333E0,6.666667E-1,2.6666667E0,6.666667E-1,-5.388416E-2,-1.0443899E-2,4.6666665E0,8.323333E1,1.38E1,4E0,6.6666665E0,1.38E1,8.4066666E1,-2.1538528E-2,8.26E1,9.003333E1,1.02251746E-1,-1.4943681E-2,-4.6282787E-2,3.8560595E-2,-3.5286192E-3,-1.2515822E-2,7.145269E-2,-3.681301E-2,7.528733E-2,-1.4171821E-2,9.4688527E-4,3.2817353E-2,-5.7121143E-3,-5.5976737E-2,5.058326E-3,-5.6098666E-2,8.246142E-2,7.409548E-3,8.569399E-2,2.2791587E-3,1.1466435E-3,2.6939023E-2,-4.355289E-3,-3.373098E-2,-5.7315878E-3,4.430941E-2,8.1232116E-2,2.0040875E-2,-3.7557897E-3,2.0520514E-2,-4.0006906E-2,2.7630849E-2,5.8014542E-2,-2.3921832E-2,-4.234559E-2,-1.026618E-2,6.853386E-2,2.3296533E-2,-3.1801827E-2,5.33903E-2,-1.6444862E-2,3.3361416E-2,1.573718E-2,-4.319377E-2,4.6007205E-2,-3.5972003E-2,3.876008E-2,7.223902E-2,-4.3849077E-2,9.2674475E-3,4.8762612E-2,4.6679764E-3],"split_indices":[0,7,5,18,16,12,3,1,10,11,1,8,15,4,7,6,16,18,19,14,18,5,5,15,18,0,20,2,18,20,15,15,19,0,1,16,7,20,21,0,5,4,0,8,12,14,21,14,11,0,0,13,16,18,8,14,18,15,0,9,15,0,0,0,0,0,0,0,0,0,0,0,0,0,0,0,0,0,0,0,0,0,0,0,0,0,0,0,0,0,0,0,0,0,0,0,0,0,0,0,0,0,0,0,0,0,0,0,0,0,0,0,0],"split_type":[0,0,0,0,0,0,0,0,0,0,0,0,0,0,0,0,0,0,0,0,0,0,0,0,0,0,0,0,0,0,0,0,0,0,0,0,0,0,0,0,0,0,0,0,0,0,0,0,0,0,0,0,0,0,0,0,0,0,0,0,0,0,0,0,0,0,0,0,0,0,0,0,0,0,0,0,0,0,0,0,0,0,0,0,0,0,0,0,0,0,0,0,0,0,0,0,0,0,0,0,0,0,0,0,0,0,0,0,0,0,0,0,0],"sum_hessian":[2.9123013E3,2.6264512E3,2.8585E2,2.0225189E3,6.039323E2,1.3465382E2,1.5119618E2,1.491908E3,5.306109E2,1.9686963E2,4.0706268E2,6.206151E1,7.2592316E1,5.6364227E1,9.4831955E1,5.059563E1,1.4413124E3,2.2522348E1,5.080886E2,6.0627388E1,1.3624223E2,2.2256819E2,1.8449449E2,5.722297E1,4.83854E0,2.2219012E0,7.0370415E1,3.2612175E1,2.375205E1,4.351942E1,5.131254E1,3.2184384E0,4.7377193E1,2.0240023E0,1.4392883E3,1.0415166E1,1.21071825E1,5.0000427E2,8.084309E0,9.126915E0,5.1500473E1,4.721732E0,1.3152051E2,1.989944E2,2.3573795E1,3.422013E1,1.5027435E2,3.0498718E1,2.6724249E1,3.8302152E0,1.0083249E0,2.4665208E0,6.790389E1,1.3178704E1,1.9433472E1,3.8514063E0,1.9900644E1,4.2067524E1,1.4518976E0,1.3505334E1,3.7807205E1,2.021883E0,1.1965554E0,4.3509026E1,3.8681655E0,9.3023206E2,5.090563E2,2.527309E0,7.8878574E0,1.0926243E1,1.1809404E0,4.842197E2,1.5784563E1,2.5745554E0,5.5097537E0,1.248539E0,7.878376E0,2.6529086E0,4.8847565E1,3.4345574E0,1.2871748E0,3.8377445E1,9.314307E1,1.8073077E2,1.8263618E1,1.3448111E1,1.0125684E1,4.321741E0,2.9898388E1,9.998264E1,5.029171E1,3.014965E0,2.7483753E1,2.9988024E0,2.3725447E1,1.4612871E0,1.0052336E0,5.0760026E0,6.2827892E1,1.2049185E1,1.1295191E0,5.8106804E0,1.3622792E1,2.1056116E0,1.7457949E0,1.8866337E1,1.0343069E0,2.8069536E1,1.3997986E1,5.1639295E0,8.341404E0,2.6359495E1,1.1447709E1],"tree_param":{"num_deleted":"0","num_feature":"22","num_nodes":"113","size_leaf_vector":"1"}},{"base_weights":[1.3334352E-3,-4.073041E-2,3.8394347E-1,-8.923534E-2,1.2087882E-1,3.294192E-1,8.179481E-1,-1.4982878E-1,3.446237E-2,4.51106E-1,6.941262E-2,9.257532E-2,4.33665E-1,2.9902276E-1,1.2020706E0,-2.1423055E-1,-1.9424623E-2,1.55934E0,2.0479864E-2,-4.3524906E-2,6.885755E-1,-6.418328E-2,2.0374918E-1,-1.13680705E-1,5.2864534E-1,4.8655257E-1,-1.9152938E-1,6.119063E-1,-4.95454E-2,1.6507884E0,3.416993E-1,-4.2944953E-2,-2.678246E-1,6.9222337E-1,-4.4020902E-2,8.653598E-2,2.3445787E-2,-4.635981E-3,5.304293E-1,3.1714445E-1,-8.337104E-1,-5.826044E-1,7.7216315E-1,-8.404778E-4,-4.6337283E-1,1.18449E0,1.6842073E-1,4.9756822E-1,-2.240864E-1,9.8871124E-1,-9.9718615E-2,4.296314E-1,1.2427851E0,4.0243858E-1,-5.426486E-1,-3.9915986E-2,8.7093616E-1,9.979154E-2,9.180335E-1,5.7035126E-2,-1.2507056E-1,-1.7706746E-2,4.6340283E-3,-2.3624297E-2,-9.956998E-3,-1.50236515E-2,6.0310055E-2,1.4673591E-3,-1.4859703E-2,-1.1070784E-3,4.8007265E-2,6.479155E-2,1.42688025E-2,-2.9851422E-2,3.1847738E-2,2.566574E-2,-5.6363285E-2,-4.7333624E-2,1.0370538E-2,2.6938334E-2,5.8431305E-2,-4.8905127E-3,1.3867586E-2,-3.3263873E-2,3.7029415E-2,9.547242E-2,2.4986861E-2,4.7457092E-3,2.3675472E-2,4.9159333E-2,-3.2780007E-2,-1.667413E-2,1.5452385E-2,6.122965E-3,9.032714E-2,-3.1007791E-2,2.029427E-2,5.7153154E-2,1.849168E-2,-1.0453338E-2,7.677245E-2,7.353382E-2,-7.6774284E-3,-4.1753024E-2,1.8914904E-2,-3.1714942E-3,6.0102608E-2,-1.7625315E-2,6.63735E-2,-3.44869E-2,2.2036878E-2],"categories":[],"categories_nodes":[],"categories_segments":[],"categories_sizes":[],"default_left":[0,0,0,0,0,0,0,0,0,0,0,0,0,0,0,0,0,0,0,1,0,0,0,0,0,0,0,0,0,0,0,0,0,0,0,0,0,1,0,0,0,0,0,0,0,0,1,0,0,0,0,0,0,1,1,0,0,0,0,0,0,0,0,0,0,0,0,0,0,0,0,0,0,0,0,0,0,0,0,0,0,0,0,0,0,0,0,0,0,0,0,0,0,0,0,0,0,0,0,0,0,0,0,0,0,0,0,0,0,0,0],"id":8,"left_children":[1,3,5,7,9,11,13,15,17,19,21,23,25,27,29,31,33,35,37,39,41,43,45,47,49,51,53,55,-1,57,59,61,63,65,67,-1,-1,69,71,73,75,77,79,81,83,85,87,89,91,93,95,97,99,101,103,-1,105,-1,107,-1,109,-1,-1,-1,-1,-1,-1,-1,-1,-1,-1,-1,-1,-1,-1,-1,-1,-1,-1,-1,-1,-1,-1,-1,-1,-1,-1,-1,-1,-1,-1,-1,-1,-1,-1,-1,-1,-1,-1,-1,-1,-1,-1,-1,-1,-1,-1,-1,-1,-1,-1],"loss_changes":[4.686678E1,2.0577145E1,6.5560875E0,1.5134752E1,1.0269588E1,6.327898E0,5.923069E0,1.1375946E1,1.4136201E1,9.607851E0,9.445074E0,7.264319E0,6.005932E0,6.5544505E0,6.3002644E0,8.314491E0,7.8910108E0,3.1427383E-1,8.448853E0,8.070453E0,6.310009E0,6.681711E0,8.888325E0,3.8367734E0,7.585195E0,6.5753365E0,3.276797E0,5.253747E0,0E0,1.056284E0,2.8859422E0,9.205967E0,9.614243E0,8.047596E0,8.0889845E0,0E0,0E0,1.0653057E1,5.4379635E0,6.090294E0,4.081886E0,1.3389927E0,4.1986656E0,6.206701E0,9.289581E0,3.4906864E0,5.6587896E0,5.5477867E0,2.8702178E0,1.0435542E1,3.3711333E0,6.1951065E0,5.0088577E0,3.8027325E0,2.9125597E0,0E0,3.485898E0,0E0,3.3338766E0,0E0,2.0753663E0,0E0,0E0,0E0,0E0,0E0,0E0,0E0,0E0,0E0,0E0,0E0,0E0,0E0,0E0,0E0,0E0,0E0,0E0,0E0,0E0,0E0,0E0,0E0,0E0,0E0,0E0,0E0,0E0,0E0,0E0,0E0,0E0,0E0,0E0,0E0,0E0,0E0,0E0,0E0,0E0,0E0,0E0,0E0,0E0,0E0,0E0,0E0,0E0,0E0,0E0],"parents":[2147483647,0,0,1,1,2,2,3,3,4,4,5,5,6,6,7,7,8,8,9,9,10,10,11,11,12,12,13,13,14,14,15,15,16,16,17,17,18,18,19,19,20,20,21,21,22,22,23,23,24,24,25,25,26,26,27,27,29,29,30,30,31,31,32,32,33,33,34,34,37,37,38,38,39,39,40,40,41,41,42,42,43,43,44,44,45,45,46,46,47,47,48,48,49,49,50,50,51,51,52,52,53,53,54,54,56,56,58,58,60,60],"right_children":[2,4,6,8,10,12,14,16,18,20,22,24,26,28,30,32,34,36,38,40,42,44,46,48,50,52,54,56,-1,58,60,62,64,66,68,-1,-1,70,72,74,76,78,80,82,84,86,88,90,92,94,96,98,100,102,104,-1,106,-1,108,-1,110,-1,-1,-1,-1,-1,-1,-1,-1,-1,-1,-1,-1,-1,-1,-1,-1,-1,-1,-1,-1,-1,-1,-1,-1,-1,-1,-1,-1,-1,-1,-1,-1,-1,-1,-1,-1,-1,-1,-1,-1,-1,-1,-1,-1,-1,-1,-1,-1,-1,-1],"split_conditions":[8.88E1,8.37E1,1.38E1,1.6666666E0,-8.6E0,4.3333335E0,8.303333E1,1.6666666E0,6.93E1,1E0,4.3333335E0,4.6666665E0,9E0,8.1933334E1,1.3333334E0,7.62E1,7.526667E1,-6.666667E-1,8.68E1,6.3333335E0,3.3333334E-1,8.88E1,-1.6666666E0,8.97E1,7.4E0,2.3333333E0,-3.3333334E-1,5E0,-4.95454E-2,2.3333333E0,3E0,-2.7E0,7.7E1,7.65E1,3.3333334E-1,8.653598E-2,2.3445787E-2,7.3333335E0,8.07E1,4.3333335E0,2.6666667E0,1.3333334E0,7E0,2.3333333E0,9E0,8.3933334E1,6E0,3.3333334E-1,1.2E1,4.7E0,9.3E0,-1.3333334E0,3.6666667E0,3.6666667E0,7E0,-3.9915986E-2,4E0,9.979154E-2,8.4E1,5.7035126E-2,1E0,-1.7706746E-2,4.6340283E-3,-2.3624297E-2,-9.956998E-3,-1.50236515E-2,6.0310055E-2,1.4673591E-3,-1.4859703E-2,-1.1070784E-3,4.8007265E-2,6.479155E-2,1.42688025E-2,-2.9851422E-2,3.1847738E-2,2.566574E-2,-5.6363285E-2,-4.7333624E-2,1.0370538E-2,2.6938334E-2,5.8431305E-2,-4.8905127E-3,1.3867586E-2,-3.3263873E-2,3.7029415E-2,9.547242E-2,2.4986861E-2,4.7457092E-3,2.3675472E-2,4.9159333E-2,-3.2780007E-2,-1.667413E-2,1.5452385E-2,6.122965E-3,9.032714E-2,-3.1007791E-2,2.029427E-2,5.7153154E-2,1.849168E-2,-1.0453338E-2,7.677245E-2,7.353382E-2,-7.6774284E-3,-4.1753024E-2,1.8914904E-2,-3.1714942E-3,6.0102608E-2,-1.7625315E-2,6.63735E-2,-3.44869E-2,2.2036878E-2],"split_indices":[0,7,18,2,18,14,15,12,10,2,4,13,8,15,20,10,15,21,0,14,12,9,20,0,18,3,21,5,0,12,14,18,16,0,20,0,0,5,6,14,4,3,14,3,14,15,13,21,18,18,18,21,13,4,13,0,8,0,10,0,3,0,0,0,0,0,0,0,0,0,0,0,0,0,0,0,0,0,0,0,0,0,0,0,0,0,0,0,0,0,0,0,0,0,0,0,0,0,0,0,0,0,0,0,0,0,0,0,0,0,0],"split_type":[0,0,0,0,0,0,0,0,0,0,0,0,0,0,0,0,0,0,0,0,0,0,0,0,0,0,0,0,0,0,0,0,0,0,0,0,0,0,0,0,0,0,0,0,0,0,0,0,0,0,0,0,0,0,0,0,0,0,0,0,0,0,0,0,0,0,0,0,0,0,0,0,0,0,0,0,0,0,0,0,0,0,0,0,0,0,0,0,0,0,0,0,0,0,0,0,0,0,0,0,0,0,0,0,0,0,0,0,0,0,0],"sum_hessian":[2.9100847E3,2.6226467E3,2.8743817E2,2.0175521E3,6.050945E2,2.5692017E2,3.0518011E1,1.3540557E3,6.634965E2,8.05418E1,5.245527E2,7.9098465E1,1.7782169E2,1.37376995E1,1.6780312E1,9.059819E2,4.4807376E2,5.024491E0,6.5847205E2,2.6390047E1,5.4151756E1,2.6326318E2,2.6128946E2,5.4201225E1,2.489724E1,1.641568E2,1.3664886E1,1.1479E1,2.2586997E0,1.0424715E1,6.3555965E0,2.1634581E2,6.8963605E2,1.4062343E1,4.340114E2,3.8346143E0,1.1898763E0,6.2850793E2,2.9964134E1,1.8530638E1,7.8594103E0,2.972762E0,5.1178993E1,2.2807474E2,3.5188454E1,7.9539766E0,2.533355E2,7.7557344E0,4.644549E1,1.4042413E1,1.0854827E1,1.541241E2,1.0032702E1,5.022484E0,8.642403E0,1.458203E0,1.0020797E1,5.915477E0,4.5092387E0,1.8112792E0,4.5443177E0,6.518015E1,1.5116565E2,1.7181012E2,5.178259E2,4.938848E0,9.123494E0,3.371821E2,9.68293E1,6.182668E2,1.0241165E1,6.22693E0,2.3737204E1,4.5779147E0,1.3952723E1,1.2723618E0,6.5870485E0,1.8992304E0,1.0735316E0,3.3699272E1,1.7479721E1,1.6960405E2,5.847068E1,3.0518E1,4.670452E0,2.9948063E0,4.9591703E0,2.0520543E2,4.8130066E1,5.5612173E0,2.1945174E0,3.8848484E1,7.59701E0,7.377674E0,6.664738E0,5.2373066E0,5.617521E0,1.05182495E1,1.4360585E2,1.7310288E0,8.301673E0,1.1560881E0,3.8663955E0,6.6304216E0,2.0119815E0,2.8334906E0,7.187306E0,1.1328593E0,3.3763793E0,2.164825E0,2.3794925E0],"tree_param":{"num_deleted":"0","num_feature":"22","num_nodes":"111","size_leaf_vector":"1"}},{"base_weights":[1.5007423E-3,-3.8632523E-2,3.6418188E-1,-8.488801E-2,1.14826575E-1,2.0642662E-1,5.0219226E-1,-1.4289564E-1,3.305841E-2,2.928049E-1,2.7742134E-2,-3.4381777E-1,2.869939E-1,-6.191741E-1,5.304444E-1,-2.0465027E-1,-1.8419463E-2,1.4860057E0,1.9621527E-2,5.3644475E-2,3.9714035E-1,-9.166943E-2,1.7068908E-1,-5.304069E-1,2.6975706E-1,-3.4161893E-1,3.5093608E-1,-3.0334091E-3,-4.4712514E-2,2.9051176E-1,6.686918E-1,-4.0923502E-2,-2.5615397E-1,6.515524E-1,-4.1903853E-2,8.226445E-2,2.274812E-2,-6.196797E-1,3.932943E-2,-9.3830436E-1,2.3951145E-1,8.0400074E-1,3.1662464E-1,8.2633756E-2,-2.1603242E-1,1.0121708E0,1.2713498E-1,-3.8724676E-2,-8.200776E-1,-3.719978E-2,8.859533E-1,4.0148902E-1,-4.9885277E-2,-9.210405E-3,4.740381E-1,8.311755E-2,6.651045E-1,7.568377E-1,1.6678791E-2,-1.697429E-2,4.394559E-3,-2.2715574E-2,-9.505242E-3,-1.4483958E-2,5.6266166E-2,1.393251E-3,-1.422246E-2,3.045467E-3,-5.624912E-2,7.3702674E-4,2.6212467E-2,4.5834794E-3,-5.4890104E-2,7.7678554E-2,6.8444903E-3,5.325522E-2,-3.9820597E-4,1.254286E-3,2.4748469E-2,6.3173905E-2,1.2960287E-3,-1.5926182E-2,1.5048536E-2,7.26281E-2,-7.5257295E-3,-8.091572E-3,1.2695451E-2,-2.7230356E-2,3.128867E-2,-5.4543167E-2,4.2607318E-4,-1.030507E-2,7.101996E-2,-1.790508E-2,6.5552644E-2,2.9258335E-2,-1.5543136E-2,7.1165286E-2,1.95797E-2,-9.17149E-3,3.474205E-2,4.3585043E-2,-3.556247E-2,2.8156111E-2,5.286931E-2,-1.3523574E-2,5.018365E-2],"categories":[],"categories_nodes":[],"categories_segments":[],"categories_sizes":[],"default_left":[0,0,1,0,0,0,0,0,0,0,0,0,0,0,0,0,0,0,0,1,0,0,1,0,0,1,0,0,0,1,0,0,0,0,0,0,0,0,0,0,1,0,0,0,0,0,0,1,0,0,0,0,0,0,0,0,0,0,0,0,0,0,0,0,0,0,0,0,0,0,0,0,0,0,0,0,0,0,0,0,0,0,0,0,0,0,0,0,0,0,0,0,0,0,0,0,0,0,0,0,0,0,0,0,0,0,0],"id":9,"left_children":[1,3,5,7,9,11,13,15,17,19,21,23,25,27,29,31,33,35,37,39,41,43,45,47,49,51,53,-1,-1,55,57,59,61,63,65,-1,-1,67,69,71,73,75,77,79,81,83,85,87,89,-1,91,93,-1,95,97,99,101,103,105,-1,-1,-1,-1,-1,-1,-1,-1,-1,-1,-1,-1,-1,-1,-1,-1,-1,-1,-1,-1,-1,-1,-1,-1,-1,-1,-1,-1,-1,-1,-1,-1,-1,-1,-1,-1,-1,-1,-1,-1,-1,-1,-1,-1,-1,-1,-1,-1],"loss_changes":[4.2360443E1,1.860973E1,6.2091827E0,1.3784218E1,9.40474E0,6.1719704E0,5.2059784E0,1.03754635E1,1.2949465E1,4.954912E0,6.995217E0,2.198361E0,4.9450636E0,5.979073E-1,4.8048935E0,7.5989914E0,7.0893044E0,2.4966812E-1,8.3361845E0,1.1606017E1,4.2888546E0,4.8612475E0,6.704878E0,1.9768853E0,3.6882463E0,6.0512905E0,4.8569994E0,0E0,0E0,4.3622923E0,5.4386253E0,8.380457E0,8.895565E0,7.131172E0,7.3619347E0,0E0,0E0,6.873821E0,7.634335E0,1.734355E0,6.9055295E0,4.7283735E0,6.093336E0,6.246368E0,7.0201235E0,4.8433943E0,6.577323E0,2.451195E0,1.9894042E0,0E0,2.3193796E0,4.716937E0,0E0,5.356937E0,5.8280945E0,6.281447E0,6.3412676E0,4.2678604E0,3.7626574E0,0E0,0E0,0E0,0E0,0E0,0E0,0E0,0E0,0E0,0E0,0E0,0E0,0E0,0E0,0E0,0E0,0E0,0E0,0E0,0E0,0E0,0E0,0E0,0E0,0E0,0E0,0E0,0E0,0E0,0E0,0E0,0E0,0E0,0E0,0E0,0E0,0E0,0E0,0E0,0E0,0E0,0E0,0E0,0E0,0E0,0E0,0E0,0E0],"parents":[2147483647,0,0,1,1,2,2,3,3,4,4,5,5,6,6,7,7,8,8,9,9,10,10,11,11,12,12,13,13,14,14,15,15,16,16,17,17,18,18,19,19,20,20,21,21,22,22,23,23,24,24,25,25,26,26,29,29,30,30,31,31,32,32,33,33,34,34,37,37,38,38,39,39,40,40,41,41,42,42,43,43,44,44,45,45,46,46,47,47,48,48,50,50,51,51,53,53,54,54,55,55,56,56,57,57,58,58],"right_children":[2,4,6,8,10,12,14,16,18,20,22,24,26,28,30,32,34,36,38,40,42,44,46,48,50,52,54,-1,-1,56,58,60,62,64,66,-1,-1,68,70,72,74,76,78,80,82,84,86,88,90,-1,92,94,-1,96,98,100,102,104,106,-1,-1,-1,-1,-1,-1,-1,-1,-1,-1,-1,-1,-1,-1,-1,-1,-1,-1,-1,-1,-1,-1,-1,-1,-1,-1,-1,-1,-1,-1,-1,-1,-1,-1,-1,-1,-1,-1,-1,-1,-1,-1,-1,-1,-1,-1,-1,-1],"split_conditions":[8.88E1,8.37E1,5.3333335E0,1.6666666E0,8.42E1,8.113333E1,6.666667E-1,1.6666666E0,6.93E1,1.3333334E0,8.59E1,1.38E1,-1.7E0,6.3333335E0,1E0,7.62E1,7.526667E1,-6.666667E-1,0E0,3E0,-3.3333334E-1,-2.8E0,2.3333333E0,1.3333334E0,7.6666665E0,4E0,4E0,-3.0334091E-3,-4.4712514E-2,5E0,9.003333E1,-2.7E0,7.7E1,7.65E1,3.3333334E-1,8.226445E-2,2.274812E-2,-4.4E0,8.68E1,7.92E1,2E0,8.41E1,5.3333335E0,8.11E1,7.1E0,9.11E1,4.3333335E0,3.6666667E0,1.6666666E0,-3.719978E-2,5E0,9.52E1,-4.9885277E-2,6.5E0,8.173333E1,9.5E1,9.59E1,8.573333E1,8.333333E0,-1.697429E-2,4.394559E-3,-2.2715574E-2,-9.505242E-3,-1.4483958E-2,5.6266166E-2,1.393251E-3,-1.422246E-2,3.045467E-3,-5.624912E-2,7.3702674E-4,2.6212467E-2,4.5834794E-3,-5.4890104E-2,7.7678554E-2,6.8444903E-3,5.325522E-2,-3.9820597E-4,1.254286E-3,2.4748469E-2,6.3173905E-2,1.2960287E-3,-1.5926182E-2,1.5048536E-2,7.26281E-2,-7.5257295E-3,-8.091572E-3,1.2695451E-2,-2.7230356E-2,3.128867E-2,-5.4543167E-2,4.2607318E-4,-1.030507E-2,7.101996E-2,-1.790508E-2,6.5552644E-2,2.9258335E-2,-1.5543136E-2,7.1165286E-2,1.95797E-2,-9.17149E-3,3.474205E-2,4.3585043E-2,-3.556247E-2,2.8156111E-2,5.286931E-2,-1.3523574E-2,5.018365E-2],"split_indices":[0,7,5,2,16,15,2,12,10,11,1,18,18,5,3,10,15,21,19,14,21,18,5,11,4,4,14,0,0,13,15,18,16,0,20,0,0,18,0,0,5,9,13,9,18,6,14,5,3,0,8,9,0,18,15,0,0,15,5,0,0,0,0,0,0,0,0,0,0,0,0,0,0,0,0,0,0,0,0,0,0,0,0,0,0,0,0,0,0,0,0,0,0,0,0,0,0,0,0,0,0,0,0,0,0,0,0],"split_type":[0,0,0,0,0,0,0,0,0,0,0,0,0,0,0,0,0,0,0,0,0,0,0,0,0,0,0,0,0,0,0,0,0,0,0,0,0,0,0,0,0,0,0,0,0,0,0,0,0,0,0,0,0,0,0,0,0,0,0,0,0,0,0,0,0,0,0,0,0,0,0,0,0,0,0,0,0,0,0,0,0,0,0,0,0,0,0,0,0,0,0,0,0,0,0,0,0,0,0,0,0,0,0,0,0,0,0],"sum_hessian":[2.908288E3,2.6193337E3,2.8895456E2,2.0130184E3,6.063152E2,1.3599673E2,1.5295782E2,1.3492351E3,6.637834E2,1.9842432E2,4.0789084E2,1.695218E1,1.1904455E2,3.2449563E0,1.4971286E2,9.0139465E2,4.4784042E2,5.078213E0,6.587052E2,6.0730488E1,1.3769383E2,2.2243619E2,1.8545465E2,1.3103065E1,3.8491166E0,1.05901985E1,1.0845435E2,1.4735854E0,1.771371E0,5.586276E1,9.3850105E1,2.1612921E2,6.8526544E2,1.4260731E1,4.335797E2,3.8826416E0,1.1955718E0,1.8788397E1,6.3991675E2,8.944823E0,5.1785664E1,2.1262901E1,1.1643092E2,9.276095E1,1.2967525E2,8.032099E0,1.7742256E2,5.2779856E0,7.8250794E0,1.3767376E0,2.472379E0,5.1477365E0,5.4424615E0,2.786318E1,8.059117E1,3.674222E1,1.9120537E1,8.253183E1,1.1318278E1,6.465005E1,1.5147916E2,1.6984027E2,5.154252E2,4.904876E0,9.355854E0,3.3740833E2,9.617137E1,8.380378E0,1.0408018E1,6.100151E2,2.990171E1,1.2564458E0,7.688378E0,2.727064E0,4.90586E1,1.5853218E1,5.4096823E0,4.4624386E1,7.180654E1,3.2758107E0,8.948514E1,1.08541725E2,2.113352E1,5.6447253E0,2.3873732E0,5.4018124E1,1.23404434E2,3.0990796E0,2.1789062E0,5.6591544E0,2.1659248E0,1.0142618E0,1.4581172E0,3.1355138E0,2.0122228E0,9.063852E0,1.8799328E1,5.140398E0,7.5450775E1,2.6078941E1,1.0663281E1,1.6943853E1,2.1766832E0,5.193274E1,3.0599087E1,9.329866E0,1.9884119E0],"tree_param":{"num_deleted":"0","num_feature":"22","num_nodes":"107","size_leaf_vector":"1"}},{"base_weights":[1.541088E-3,-3.667082E-2,3.4488565E-1,-8.087572E-2,1.09439075E-1,2.9359028E-1,7.524224E-1,-2.0157631E-2,-1.9623892E-1,4.2470285E-1,5.9200346E-2,2.3765218E-1,7.1331245E-1,2.656899E-1,1.1087059E0,-1.1580223E-1,1.1628584E-1,-2.853522E-1,2.0657243E-2,1.2032326E0,2.8439957E-1,2.4056868E-1,-2.811239E-2,1.774801E-1,6.6559464E-1,8.24141E-1,-3.0620966E-2,5.60907E-1,-4.8655715E-2,1.2806672E0,-2.409308E-2,-9.962467E-3,-3.1564993E-1,-1.2267839E-1,2.1609639E-1,-2.9491174E-1,1.3388395E0,8.300657E-1,-3.12114E-2,-1.6359363E-2,1.4004738E0,-2.1090691E-1,5.090203E-1,1.5120278E-1,6.444592E-1,-5.697802E-2,4.8386985E-1,5.9251223E-2,4.5514137E-1,1.5699472E0,4.2241472E-1,1.0403805E0,-5.0933376E-2,-3.8988348E-2,7.994412E-1,1.6084566E0,5.20789E-1,7.636479E-2,-1.1276965E-3,-2.227213E-2,-6.098493E-3,-8.002336E-3,5.2141067E-2,1.178272E-2,-3.281064E-2,-1.562499E-2,2.9188743E-2,8.8639945E-2,1.2581569E-2,7.088409E-2,1.0224526E-2,1.2643675E-2,-1.29179E-2,8.283387E-2,1.7386997E-2,8.208333E-3,-4.128622E-2,-3.9165065E-2,3.0019725E-2,-5.352021E-3,1.5943754E-2,3.8510215E-2,-3.446315E-2,-4.3039467E-2,-1.5422538E-3,3.7292436E-2,-3.0189747E-2,-2.9318256E-2,6.497837E-3,2.9961025E-2,-1.1341577E-2,9.5657066E-2,5.756156E-3,1.0058097E-2,5.680691E-2,7.275516E-2,2.547094E-2,1.7825821E-2,-4.373406E-2,7.380658E-3,6.3149944E-2,2.942199E-2,9.180291E-2,6.2276203E-2,-1.734738E-2],"categories":[],"categories_nodes":[],"categories_segments":[],"categories_sizes":[],"default_left":[0,0,0,0,0,1,0,0,1,1,0,1,0,0,0,0,0,0,0,0,0,1,0,0,0,0,0,0,0,0,0,0,0,0,0,1,0,0,0,0,0,0,0,0,0,0,0,0,0,0,0,0,0,0,0,0,0,0,0,0,0,0,0,0,0,0,0,0,0,0,0,0,0,0,0,0,0,0,0,0,0,0,0,0,0,0,0,0,0,0,0,0,0,0,0,0,0,0,0,0,0,0,0,0,0],"id":10,"left_children":[1,3,5,7,9,11,13,15,17,19,21,23,25,27,29,31,33,35,37,39,41,43,45,47,49,51,-1,53,-1,55,-1,57,59,61,63,65,67,69,71,-1,73,75,77,79,81,83,85,87,89,91,93,95,97,-1,99,101,103,-1,-1,-1,-1,-1,-1,-1,-1,-1,-1,-1,-1,-1,-1,-1,-1,-1,-1,-1,-1,-1,-1,-1,-1,-1,-1,-1,-1,-1,-1,-1,-1,-1,-1,-1,-1,-1,-1,-1,-1,-1,-1,-1,-1,-1,-1,-1,-1],"loss_changes":[3.8154842E1,1.6911242E1,5.8675194E0,1.4073199E1,9.60898E0,5.9425297E0,5.2408504E0,1.7210924E1,1.33982525E1,8.772634E0,8.333658E0,5.835595E0,4.9294806E0,5.9604588E0,5.5717297E0,1.6394436E1,1.299134E1,8.021126E0,8.536218E0,4.2111015E0,8.119307E0,6.073986E0,5.286513E0,6.672227E0,5.5251303E0,5.392542E0,0E0,4.64982E0,0E0,3.3022003E0,0E0,9.864598E0,6.692274E0,7.16959E0,6.7022743E0,7.741535E0,9.950485E-1,4.2109556E0,1.2420355E1,0E0,2.4453716E0,5.4798956E0,6.3553925E0,6.1529226E0,5.6747065E0,7.0681925E0,5.8920097E0,6.6622763E0,6.109479E0,2.5732336E0,3.4893427E0,4.2514534E0,2.5084398E0,0E0,3.1925073E0,1.5041676E0,4.512144E0,0E0,0E0,0E0,0E0,0E0,0E0,0E0,0E0,0E0,0E0,0E0,0E0,0E0,0E0,0E0,0E0,0E0,0E0,0E0,0E0,0E0,0E0,0E0,0E0,0E0,0E0,0E0,0E0,0E0,0E0,0E0,0E0,0E0,0E0,0E0,0E0,0E0,0E0,0E0,0E0,0E0,0E0,0E0,0E0,0E0,0E0,0E0,0E0],"parents":[2147483647,0,0,1,1,2,2,3,3,4,4,5,5,6,6,7,7,8,8,9,9,10,10,11,11,12,12,13,13,14,14,15,15,16,16,17,17,18,18,19,19,20,20,21,21,22,22,23,23,24,24,25,25,27,27,29,29,31,31,32,32,33,33,34,34,35,35,36,36,37,37,38,38,40,40,41,41,42,42,43,43,44,44,45,45,46,46,47,47,48,48,49,49,50,50,51,51,52,52,54,54,55,55,56,56],"right_children":[2,4,6,8,10,12,14,16,18,20,22,24,26,28,30,32,34,36,38,40,42,44,46,48,50,52,-1,54,-1,56,-1,58,60,62,64,66,68,70,72,-1,74,76,78,80,82,84,86,88,90,92,94,96,98,-1,100,102,104,-1,-1,-1,-1,-1,-1,-1,-1,-1,-1,-1,-1,-1,-1,-1,-1,-1,-1,-1,-1,-1,-1,-1,-1,-1,-1,-1,-1,-1,-1,-1,-1,-1,-1,-1,-1,-1,-1,-1,-1,-1,-1,-1,-1,-1,-1,-1,-1],"split_conditions":[8.88E1,8.37E1,1.38E1,8.01E1,-8.6E0,6.6666665E0,8.303333E1,7.7E1,4E0,2.3333333E0,8.403333E1,7.6666665E0,9.013333E1,8.1933334E1,2.3333333E0,7.68E1,6.6666665E0,1.25E1,-1.14E1,8.113333E1,1E0,6.3333335E0,2.6666667E0,1.6666666E0,8E0,7.6666665E0,-3.0620966E-2,5E0,-4.8655715E-2,2.3333333E0,-2.409308E-2,6.96E1,7.9433334E1,3.3333333E0,3.3333333E0,7E0,3.3333333E0,5E0,0E0,-1.6359363E-2,8.7933334E1,6.3333335E0,3.3333334E-1,8.3566666E1,3E0,8.07E1,6.3333335E0,8.0066666E1,1.04E1,1.2E1,7E0,7.6666665E0,6.6666665E0,-3.8988348E-2,1E0,1.3333334E0,4E0,7.636479E-2,-1.1276965E-3,-2.227213E-2,-6.098493E-3,-8.002336E-3,5.2141067E-2,1.178272E-2,-3.281064E-2,-1.562499E-2,2.9188743E-2,8.8639945E-2,1.2581569E-2,7.088409E-2,1.0224526E-2,1.2643675E-2,-1.29179E-2,8.283387E-2,1.7386997E-2,8.208333E-3,-4.128622E-2,-3.9165065E-2,3.0019725E-2,-5.352021E-3,1.5943754E-2,3.8510215E-2,-3.446315E-2,-4.3039467E-2,-1.5422538E-3,3.7292436E-2,-3.0189747E-2,-2.9318256E-2,6.497837E-3,2.9961025E-2,-1.1341577E-2,9.5657066E-2,5.756156E-3,1.0058097E-2,5.680691E-2,7.275516E-2,2.547094E-2,1.7825821E-2,-4.373406E-2,7.380658E-3,6.3149944E-2,2.942199E-2,9.180291E-2,6.2276203E-2,-1.734738E-2],"split_indices":[0,16,18,10,18,13,15,1,4,13,16,4,6,15,20,7,5,18,18,6,2,13,2,3,4,4,0,5,0,12,0,9,6,11,11,13,4,8,21,0,6,14,12,15,3,6,14,15,18,18,8,13,14,0,3,12,13,0,0,0,0,0,0,0,0,0,0,0,0,0,0,0,0,0,0,0,0,0,0,0,0,0,0,0,0,0,0,0,0,0,0,0,0,0,0,0,0,0,0,0,0,0,0,0,0],"split_type":[0,0,0,0,0,0,0,0,0,0,0,0,0,0,0,0,0,0,0,0,0,0,0,0,0,0,0,0,0,0,0,0,0,0,0,0,0,0,0,0,0,0,0,0,0,0,0,0,0,0,0,0,0,0,0,0,0,0,0,0,0,0,0,0,0,0,0,0,0,0,0,0,0,0,0,0,0,0,0,0,0,0,0,0,0,0,0,0,0,0,0,0,0,0,0,0,0,0,0,0,0,0,0,0,0],"sum_hessian":[2.9062124E3,2.6159663E3,2.9024603E2,2.008692E3,6.0727435E2,2.593259E2,3.0920132E1,1.3168047E3,6.918874E2,8.2446014E1,5.248283E2,2.3021095E2,2.9114946E1,1.3805557E1,1.7114574E1,7.742321E2,5.425725E2,4.901785E2,2.0170886E2,1.1432456E1,7.101356E1,1.6998198E2,3.5484634E2,2.0307214E2,2.7138811E1,2.721793E1,1.8970156E0,1.1590634E1,2.2149231E0,1.5620617E1,1.4939585E0,5.0685205E2,2.673801E2,1.5978636E2,3.8278616E2,4.8812396E2,2.0545316E0,1.1243963E1,1.904649E2,1.2299894E0,1.0202466E1,2.2175623E1,4.8837936E1,1.403108E2,2.967118E1,3.3674908E2,1.809725E1,1.4327757E2,5.979457E1,4.594942E0,2.2543869E1,2.1673334E1,5.544597E0,1.408003E0,1.0182631E1,1.0132863E1,5.4877534E0,3.1405003E0,5.0371155E2,1.5931615E2,1.0806394E2,1.5565833E2,4.128047E0,3.7510577E2,7.680383E0,4.7917697E2,8.946996E0,1.0177135E0,1.0368181E0,5.144974E0,6.098989E0,8.457564E1,1.0588927E2,7.7440968E0,2.4583695E0,1.4228445E1,7.9471765E0,2.7250202E0,4.611292E1,5.537921E1,8.493159E1,2.7500877E1,2.1703033E0,9.597738E0,3.2715137E2,1.4837663E1,3.2595873E0,1.3422536E1,1.2985504E2,4.9465443E1,1.0329128E1,3.4629884E0,1.131954E0,1.81876E1,4.35627E0,1.1191437E1,1.0481896E1,4.089174E0,1.4554232E0,4.7798777E0,5.4027534E0,2.5026057E0,7.630257E0,2.7530394E0,2.734714E0],"tree_param":{"num_deleted":"0","num_feature":"22","num_nodes":"105","size_leaf_vector":"1"}},{"base_weights":[1.6195398E-3,-3.4820385E-2,3.271758E-1,-7.323086E-2,1.22177824E-1,1.8000548E-1,4.5557812E-1,-8.499607E-2,4.4621232E-1,1.07684046E-1,1.2381781E0,-3.85452E-2,3.6250335E-1,5.753825E-2,5.3453153E-1,-1.3339674E-2,-1.722105E-1,1.8167329E-1,9.953573E-1,4.098064E-2,3.0576333E-1,1.9726754E0,-8.129182E-2,2.240065E-1,-3.463484E-1,-4.5180503E-2,4.123428E-1,-2.910213E-1,6.063109E-1,7.8428483E-1,3.9929047E-1,-1.0533146E-1,2.175043E-1,1.2672058E-1,-2.1522471E-1,-1.4449218E-1,7.707995E-1,-2.4535691E-2,1.2132245E0,1.4639233E-1,-1.4145578E-1,4.4705337E-1,-2.017095E-1,1.1169068E-1,3.236174E-2,-3.8365807E-2,3.4782473E-2,-3.8638774E-1,5.1763064E-1,9.4407946E-1,-5.4319954E-1,-3.6796488E-2,4.6332535E-1,-6.8764293E-1,1.3443913E-1,1.00969866E-1,1.1121886E0,1.1475405E0,3.8491115E-1,-1.3771473E-1,5.296414E-1,-3.124212E-4,-1.4372586E-2,7.859461E-3,3.1293E-2,5.9447724E-2,2.8847845E-3,-1.2657273E-2,1.7137447E-3,-2.4479812E-2,2.3336522E-2,6.735029E-2,-3.0728731E-2,7.5762846E-2,6.4319554E-3,1.7033515E-2,-3.018381E-4,-5.2648522E-2,-4.5813746E-3,3.3444945E-2,7.4708574E-3,-4.1826114E-2,6.150972E-3,4.0150832E-2,-3.1216582E-2,-4.0525258E-2,3.6989164E-2,-2.2372708E-2,8.6568914E-2,3.5637505E-2,-3.364378E-2,3.0309936E-2,4.609205E-3,9.007046E-3,-4.1381508E-2,5.3081036E-2,-1.628988E-2,-2.951923E-2,4.248552E-2,6.997838E-2,2.7619184E-3,6.2306803E-2,1.0356366E-3,5.3466886E-2,1.2206588E-3,4.157099E-2,-1.6492177E-2,2.9380647E-2,-3.0357717E-2],"categories":[],"categories_nodes":[],"categories_segments":[],"categories_sizes":[],"default_left":[0,1,1,0,0,0,0,0,0,0,0,0,0,0,0,0,0,1,0,0,0,0,0,0,0,0,0,0,0,0,0,0,0,0,0,0,0,0,0,0,0,0,0,0,0,0,0,0,1,0,0,0,0,0,0,0,0,0,0,0,0,0,0,0,0,0,0,0,0,0,0,0,0,0,0,0,0,0,0,0,0,0,0,0,0,0,0,0,0,0,0,0,0,0,0,0,0,0,0,0,0,0,0,0,0,0,0,0,0],"id":11,"left_children":[1,3,5,7,9,11,13,15,17,19,21,23,25,27,29,31,33,35,37,39,41,43,45,47,49,-1,51,53,55,57,59,61,63,65,67,69,71,-1,73,75,77,79,81,-1,-1,-1,-1,83,85,87,89,-1,91,93,95,97,99,101,103,105,107,-1,-1,-1,-1,-1,-1,-1,-1,-1,-1,-1,-1,-1,-1,-1,-1,-1,-1,-1,-1,-1,-1,-1,-1,-1,-1,-1,-1,-1,-1,-1,-1,-1,-1,-1,-1,-1,-1,-1,-1,-1,-1,-1,-1,-1,-1,-1,-1],"loss_changes":[3.4476383E1,1.5770221E1,5.4461975E0,1.2874959E1,8.182684E0,5.516642E0,4.858616E0,1.2839358E1,6.600728E0,6.7077713E0,6.4561577E0,5.2241845E0,5.122878E0,5.31668E0,4.0679703E0,2.4000563E1,1.1943321E1,6.4002604E0,5.4368687E0,7.360225E0,9.266304E0,1.2331009E-2,2.2838728E0,6.4685855E0,8.059461E0,0E0,4.621236E0,2.9797077E0,2.6391091E0,6.0179996E0,6.105541E0,1.4579487E1,7.8341427E0,8.524881E0,7.6771507E0,4.8496513E0,1.0263882E1,0E0,4.1716347E0,7.179803E0,6.2745485E0,6.5305386E0,5.990453E0,0E0,0E0,0E0,0E0,3.8784323E0,7.693476E0,5.482691E0,4.7810974E0,0E0,3.6888256E0,1.2446647E0,4.225369E0,3.8581188E0,1.5260663E0,2.5087242E0,5.5781403E0,3.556346E0,4.9405174E0,0E0,0E0,0E0,0E0,0E0,0E0,0E0,0E0,0E0,0E0,0E0,0E0,0E0,0E0,0E0,0E0,0E0,0E0,0E0,0E0,0E0,0E0,0E0,0E0,0E0,0E0,0E0,0E0,0E0,0E0,0E0,0E0,0E0,0E0,0E0,0E0,0E0,0E0,0E0,0E0,0E0,0E0,0E0,0E0,0E0,0E0,0E0,0E0],"parents":[2147483647,0,0,1,1,2,2,3,3,4,4,5,5,6,6,7,7,8,8,9,9,10,10,11,11,12,12,13,13,14,14,15,15,16,16,17,17,18,18,19,19,20,20,21,21,22,22,23,23,24,24,26,26,27,27,28,28,29,29,30,30,31,31,32,32,33,33,34,34,35,35,36,36,38,38,39,39,40,40,41,41,42,42,47,47,48,48,49,49,50,50,52,52,53,53,54,54,55,55,56,56,57,57,58,58,59,59,60,60],"right_children":[2,4,6,8,10,12,14,16,18,20,22,24,26,28,30,32,34,36,38,40,42,44,46,48,50,-1,52,54,56,58,60,62,64,66,68,70,72,-1,74,76,78,80,82,-1,-1,-1,-1,84,86,88,90,-1,92,94,96,98,100,102,104,106,108,-1,-1,-1,-1,-1,-1,-1,-1,-1,-1,-1,-1,-1,-1,-1,-1,-1,-1,-1,-1,-1,-1,-1,-1,-1,-1,-1,-1,-1,-1,-1,-1,-1,-1,-1,-1,-1,-1,-1,-1,-1,-1,-1,-1,-1,-1,-1,-1],"split_conditions":[8.88E1,4.3333335E0,5.3333335E0,9.36E1,8.666667E0,1.3333334E0,1.3333334E0,7.73E1,3E0,8.84E1,5E0,8.45E1,7.88E1,5.3333335E0,-3.3333334E-1,7.7E1,3E0,3.6666667E0,8.123333E1,3.3333334E-1,8.83E1,8.74E1,4.3333335E0,8.113333E1,6.666667E-1,-4.5180503E-2,-1.3333334E0,8.536667E1,6E0,2.3333333E0,3.6666667E0,7.62E1,4.2E0,-1.21E1,5.1E0,8.64E1,9.59E1,-2.4535691E-2,8.64E1,8.11E1,-8.2E0,5.3333335E0,8.553333E1,1.1169068E-1,3.236174E-2,-3.8365807E-2,3.4782473E-2,7.5E1,3E0,6.3333335E0,8.35E1,-3.6796488E-2,8.786667E1,7.62E1,8.73E1,8.87E1,2E0,9.73E1,2E0,2.3333333E0,9.73E1,-3.124212E-4,-1.4372586E-2,7.859461E-3,3.1293E-2,5.9447724E-2,2.8847845E-3,-1.2657273E-2,1.7137447E-3,-2.4479812E-2,2.3336522E-2,6.735029E-2,-3.0728731E-2,7.5762846E-2,6.4319554E-3,1.7033515E-2,-3.018381E-4,-5.2648522E-2,-4.5813746E-3,3.3444945E-2,7.4708574E-3,-4.1826114E-2,6.150972E-3,4.0150832E-2,-3.1216582E-2,-4.0525258E-2,3.6989164E-2,-2.2372708E-2,8.6568914E-2,3.5637505E-2,-3.364378E-2,3.0309936E-2,4.609205E-3,9.007046E-3,-4.1381508E-2,5.3081036E-2,-1.628988E-2,-2.951923E-2,4.248552E-2,6.997838E-2,2.7619184E-3,6.2306803E-2,1.0356366E-3,5.3466886E-2,1.2206588E-3,4.157099E-2,-1.6492177E-2,2.9380647E-2,-3.0357717E-2],"split_indices":[0,4,5,9,4,12,2,10,11,9,14,15,15,13,21,10,5,4,6,21,0,15,13,15,11,0,20,15,18,12,13,10,18,18,18,15,9,0,0,9,18,4,15,0,0,0,0,15,13,4,16,0,15,9,15,9,12,0,2,13,0,0,0,0,0,0,0,0,0,0,0,0,0,0,0,0,0,0,0,0,0,0,0,0,0,0,0,0,0,0,0,0,0,0,0,0,0,0,0,0,0,0,0,0,0,0,0,0,0],"split_type":[0,0,0,0,0,0,0,0,0,0,0,0,0,0,0,0,0,0,0,0,0,0,0,0,0,0,0,0,0,0,0,0,0,0,0,0,0,0,0,0,0,0,0,0,0,0,0,0,0,0,0,0,0,0,0,0,0,0,0,0,0,0,0,0,0,0,0,0,0,0,0,0,0,0,0,0,0,0,0,0,0,0,0,0,0,0,0,0,0,0,0,0,0,0,0,0,0,0,0,0,0,0,0,0,0,0,0,0,0],"sum_hessian":[2.904191E3,2.612647E3,2.9154385E2,2.0995212E3,5.1312585E2,1.3696324E2,1.5458063E2,2.0538389E3,4.5682358E1,5.0762964E2,5.496223E0,6.2684315E1,7.427892E1,2.5872814E1,1.2870781E2,1.1281173E3,9.2572144E2,3.17286E1,1.3953756E1,3.8065167E2,1.2697797E2,3.2127562E0,2.2834668E0,3.397574E1,2.8708574E1,2.1644013E0,7.2114525E1,1.6110023E1,9.762789E0,4.352671E1,8.51811E1,8.0705E2,3.2106735E2,1.162042E2,8.095173E2,2.0907852E1,1.0820747E1,1.6240144E0,1.23297415E1,2.4137999E2,1.3927168E2,9.941735E1,2.7560614E1,2.1114266E0,1.1013297E0,1.2192663E0,1.0642005E0,1.093267E1,2.304307E1,3.2973547E0,2.5411219E1,2.4945786E0,6.961994E1,8.018659E0,8.091366E0,5.4841003E0,4.278689E0,2.1813028E1,2.1713682E1,1.6626915E1,6.8554184E1,5.233528E2,2.8369724E2,2.8095462E2,4.0112713E1,6.100331E0,1.1010387E2,7.027011E2,1.0681616E2,1.3490139E1,7.4177146E0,7.661756E0,3.158991E0,9.333492E0,2.9962492E0,1.05579315E2,1.3580067E2,6.175244E0,1.3309644E2,5.624633E1,4.317102E1,8.793715E0,1.87669E1,1.4266245E0,9.506045E0,2.9225044E0,2.0120565E1,1.347441E0,1.9499139E0,1.9573491E0,2.3453869E1,4.9811375E1,1.9808569E1,1.07401E0,6.9446487E0,2.250626E0,5.8407397E0,2.9612796E0,2.5228207E0,3.109167E0,1.1695216E0,1.9960627E1,1.8524022E0,6.8128357E0,1.49008465E1,2.2003777E0,1.44265375E1,6.568751E1,2.8666744E0],"tree_param":{"num_deleted":"0","num_feature":"22","num_nodes":"109","size_leaf_vector":"1"}},{"base_weights":[1.6664331E-3,-6.312553E-2,1.6890375E-1,-8.7313384E-2,3.8257688E-1,3.5761085E-1,8.704838E-2,-3.1662386E-2,-1.9081724E-1,7.5946945E-1,1.825278E-1,2.0774966E-1,6.028835E-1,-1.085869E-1,1.7920928E-1,-1.1838626E-1,1.02480404E-1,-2.1808937E-1,4.0230653E-1,1.177348E-1,1.113751E0,3.32615E-1,-3.971392E-1,-6.216605E-1,2.6692525E-1,4.5604575E-1,1.1555123E0,-1.775288E-1,4.694543E-1,9.100087E-2,4.424808E-1,-1.9226747E-2,-2.8789914E-1,-1.6782157E-1,1.9608131E-1,-7.5621784E-2,-3.5032168E-1,-1.22025274E-1,7.368537E-1,7.406222E-2,-1.7656556E-1,6.382675E-1,1.6204491E0,3.770788E-2,6.704287E-1,7.5975204E-1,-6.6683257E-1,4.8206395E-1,-9.949137E-1,1.1208506E0,2.2256759E-1,-1.9465213E-1,6.08322E-1,-8.71917E-3,1.3551363E0,-2.2494875E-1,7.772131E-1,8.050824E-2,2.1850137E-1,2.9373994E-1,-5.838683E-2,6.4046836E-1,1.0653297E-1,2.4154428E-2,-2.6311437E-3,-1.5303263E-2,4.988262E-2,-4.0187612E-2,-4.7500706E-3,-3.1102097E-2,1.0691741E-2,2.18449E-2,-6.574489E-3,-1.9856332E-2,8.590828E-3,-4.7849562E-2,7.690554E-3,3.688488E-3,7.262114E-2,-3.6688816E-2,2.9331122E-2,6.323674E-2,5.5324617E-3,2.9808585E-2,1.0027086E-1,-6.1568297E-3,5.60896E-2,3.977674E-2,-4.3685198E-2,-1.256319E-2,6.656573E-2,3.0519003E-2,-4.2024747E-2,-1.3490193E-2,4.781304E-2,-6.031506E-2,5.126194E-4,7.476392E-2,-5.716552E-3,-8.42943E-4,1.720812E-2,4.7124666E-3,-5.3710263E-2,-1.7807975E-2,3.4798384E-2,-4.1230362E-2,4.157914E-2,7.463875E-2,7.253324E-3,-1.2978156E-2,4.0685534E-2,9.208613E-2,-1.4224313E-2,5.060354E-2,-5.013097E-3,4.2335294E-2,9.988244E-3,-5.6711165E-3,3.286787E-2,6.007553E-2,2.4251847E-2,-1.0392445E-2,2.9537668E-2],"categories":[],"categories_nodes":[],"categories_segments":[],"categories_sizes":[],"default_left":[0,0,0,0,0,0,0,0,0,0,0,0,0,0,0,0,0,0,0,0,0,1,0,0,0,0,0,0,0,0,0,0,0,0,0,0,0,1,1,0,0,0,0,0,0,0,0,0,0,0,0,0,0,0,0,0,0,0,0,0,0,0,0,0,0,0,0,0,0,0,0,0,0,0,0,0,0,0,0,0,0,0,0,0,0,0,0,0,0,0,0,0,0,0,0,0,0,0,0,0,0,0,0,0,0,0,0,0,0,0,0,0,0,0,0,0,0,0,0,0,0,0,0],"id":12,"left_children":[1,3,5,7,9,11,13,15,17,19,21,23,25,27,29,31,33,35,37,39,41,43,45,47,49,51,53,55,57,59,61,63,65,67,69,71,73,75,77,-1,79,81,83,85,87,89,91,93,95,97,99,101,103,105,107,109,111,-1,113,115,117,119,121,-1,-1,-1,-1,-1,-1,-1,-1,-1,-1,-1,-1,-1,-1,-1,-1,-1,-1,-1,-1,-1,-1,-1,-1,-1,-1,-1,-1,-1,-1,-1,-1,-1,-1,-1,-1,-1,-1,-1,-1,-1,-1,-1,-1,-1,-1,-1,-1,-1,-1,-1,-1,-1,-1,-1,-1,-1,-1,-1,-1],"loss_changes":[3.1468615E1,2.2599682E1,1.2495541E1,1.1435211E1,7.9994383E0,8.88109E0,1.0241283E1,1.5053584E1,1.1319233E1,8.305885E0,6.381056E0,7.705771E0,6.9713173E0,7.343154E0,8.91824E0,1.3201777E1,1.2891095E1,1.2491278E1,5.505683E0,6.0070777E0,4.6977177E0,5.7128844E0,5.25793E0,4.817973E0,5.208392E0,7.5159416E0,4.368597E0,7.5764747E0,5.283737E0,8.806676E0,6.3538837E0,8.359686E0,7.076042E0,6.002093E0,5.622698E0,9.2525015E0,8.483364E0,3.1145482E0,8.903421E0,0E0,5.818323E0,4.4623175E0,3.0897655E0,5.685116E0,5.8697205E0,2.2682047E0,3.370284E0,1.4470053E0,1.75383E0,3.347064E0,4.0298758E0,3.8913882E0,5.382559E0,3.2480898E0,2.449747E0,5.8387094E0,9.520527E0,0E0,4.4760647E0,6.2374096E0,6.6893344E0,4.6975E0,5.7556596E0,0E0,0E0,0E0,0E0,0E0,0E0,0E0,0E0,0E0,0E0,0E0,0E0,0E0,0E0,0E0,0E0,0E0,0E0,0E0,0E0,0E0,0E0,0E0,0E0,0E0,0E0,0E0,0E0,0E0,0E0,0E0,0E0,0E0,0E0,0E0,0E0,0E0,0E0,0E0,0E0,0E0,0E0,0E0,0E0,0E0,0E0,0E0,0E0,0E0,0E0,0E0,0E0,0E0,0E0,0E0,0E0,0E0,0E0,0E0,0E0],"parents":[2147483647,0,0,1,1,2,2,3,3,4,4,5,5,6,6,7,7,8,8,9,9,10,10,11,11,12,12,13,13,14,14,15,15,16,16,17,17,18,18,19,19,20,20,21,21,22,22,23,23,24,24,25,25,26,26,27,27,28,28,29,29,30,30,31,31,32,32,33,33,34,34,35,35,36,36,37,37,38,38,40,40,41,41,42,42,43,43,44,44,45,45,46,46,47,47,48,48,49,49,50,50,51,51,52,52,53,53,54,54,55,55,56,56,58,58,59,59,60,60,61,61,62,62],"right_children":[2,4,6,8,10,12,14,16,18,20,22,24,26,28,30,32,34,36,38,40,42,44,46,48,50,52,54,56,58,60,62,64,66,68,70,72,74,76,78,-1,80,82,84,86,88,90,92,94,96,98,100,102,104,106,108,110,112,-1,114,116,118,120,122,-1,-1,-1,-1,-1,-1,-1,-1,-1,-1,-1,-1,-1,-1,-1,-1,-1,-1,-1,-1,-1,-1,-1,-1,-1,-1,-1,-1,-1,-1,-1,-1,-1,-1,-1,-1,-1,-1,-1,-1,-1,-1,-1,-1,-1,-1,-1,-1,-1,-1,-1,-1,-1,-1,-1,-1,-1,-1,-1,-1],"split_conditions":[8.37E1,8.9E0,8.42E1,8.01E1,7.89E1,8.42E1,4.3333335E0,7.7E1,9.48E1,7.6833336E1,1.6666666E0,6.666667E-1,8.5566666E1,2.6666667E0,8.99E1,7.56E1,5.3333335E0,6E0,8.276667E1,8.03E1,1.3333334E0,3.6666667E0,6.666667E-1,-2.8E0,-1.3E1,3.6666667E0,1E0,3E0,-6E-1,-3.5E0,6E0,7.446667E1,8.24E1,7.03E1,-2E0,8.01E1,5.5E0,3.3333333E0,3.6666667E0,7.406222E-2,2.3333333E0,7.7333336E1,7.803333E1,4.4E0,2.3333333E0,6.666667E-1,2E0,8.48E1,2.6666667E0,5E0,1.3333334E0,3.3333334E-1,8.07E1,1.3333334E0,8.69E1,1.3E1,3.6666667E0,8.050824E-2,3E0,1E0,1.6666666E0,5E0,6.3333335E0,2.4154428E-2,-2.6311437E-3,-1.5303263E-2,4.988262E-2,-4.0187612E-2,-4.7500706E-3,-3.1102097E-2,1.0691741E-2,2.18449E-2,-6.574489E-3,-1.9856332E-2,8.590828E-3,-4.7849562E-2,7.690554E-3,3.688488E-3,7.262114E-2,-3.6688816E-2,2.9331122E-2,6.323674E-2,5.5324617E-3,2.9808585E-2,1.0027086E-1,-6.1568297E-3,5.60896E-2,3.977674E-2,-4.3685198E-2,-1.256319E-2,6.656573E-2,3.0519003E-2,-4.2024747E-2,-1.3490193E-2,4.781304E-2,-6.031506E-2,5.126194E-4,7.476392E-2,-5.716552E-3,-8.42943E-4,1.720812E-2,4.7124666E-3,-5.3710263E-2,-1.7807975E-2,3.4798384E-2,-4.1230362E-2,4.157914E-2,7.463875E-2,7.253324E-3,-1.2978156E-2,4.0685534E-2,9.208613E-2,-1.4224313E-2,5.060354E-2,-5.013097E-3,4.2335294E-2,9.988244E-3,-5.6711165E-3,3.286787E-2,6.007553E-2,2.4251847E-2,-1.0392445E-2,2.9537668E-2],"split_indices":[16,18,1,10,6,0,14,10,9,6,20,11,6,2,0,16,13,13,6,0,20,13,11,18,18,13,12,3,18,18,8,15,0,0,20,15,18,5,4,0,2,7,15,19,3,3,8,15,12,4,12,21,6,3,15,18,14,0,13,3,20,14,4,0,0,0,0,0,0,0,0,0,0,0,0,0,0,0,0,0,0,0,0,0,0,0,0,0,0,0,0,0,0,0,0,0,0,0,0,0,0,0,0,0,0,0,0,0,0,0,0,0,0,0,0,0,0,0,0,0,0,0,0],"split_type":[0,0,0,0,0,0,0,0,0,0,0,0,0,0,0,0,0,0,0,0,0,0,0,0,0,0,0,0,0,0,0,0,0,0,0,0,0,0,0,0,0,0,0,0,0,0,0,0,0,0,0,0,0,0,0,0,0,0,0,0,0,0,0,0,0,0,0,0,0,0,0,0,0,0,0,0,0,0,0,0,0,0,0,0,0,0,0,0,0,0,0,0,0,0,0,0,0,0,0,0,0,0,0,0,0,0,0,0,0,0,0,0,0,0,0,0,0,0,0,0,0,0,0],"sum_hessian":[2.9021946E3,2.0922332E3,8.099615E2,1.985297E3,1.0693612E2,2.4402475E2,5.659367E2,1.2919559E3,6.933411E2,3.610946E1,7.082666E1,1.5262074E2,9.1404E1,1.8117268E2,3.8476404E2,7.8473737E2,5.0721854E2,6.6346686E2,2.9874256E1,1.3317987E1,2.2791473E1,5.6598415E1,1.4228247E1,9.530804E0,1.4308994E2,7.365779E1,1.7746212E1,1.6248615E2,1.8686544E1,2.892105E2,9.555353E1,4.958151E2,2.8892227E2,1.3025974E2,3.769588E2,3.2012973E2,3.4333713E2,1.1883945E1,1.799031E1,1.6482859E0,1.1669702E1,1.2923639E1,9.867833E0,3.081176E1,2.5786654E1,2.346307E0,1.188194E1,2.334898E0,7.1959057E0,5.867464E0,1.3722247E2,1.3915713E1,5.9742077E1,2.7374406E0,1.5008771E1,1.555259E2,6.960245E0,2.392986E0,1.629356E1,1.22285904E2,1.669246E2,5.9551174E1,3.600235E1,3.0069567E1,4.6574554E2,2.856477E2,3.274566E0,1.2352158E1,1.1790758E2,7.2834334E0,3.6967538E2,3.0795837E1,2.893339E2,3.1531174E2,2.8025398E1,2.3378325E0,9.546113E0,9.910142E0,8.080169E0,6.7673407E0,4.9023614E0,5.269654E0,7.653986E0,3.3918428E0,6.4759903E0,2.7602777E1,3.2089825E0,2.4302462E1,1.4841914E0,1.0497806E0,1.2965264E0,1.1212049E0,1.0760735E1,1.0697595E0,1.2651385E0,5.780218E0,1.4156876E0,4.340983E0,1.5264814E0,4.6507725E1,9.071475E1,1.1147128E1,2.7685852E0,4.721498E0,5.502058E1,1.3983731E0,1.3390675E0,1.3266189E1,1.7425821E0,1.5123592E2,4.2899876E0,3.108662E0,3.851583E0,4.045985E0,1.2247574E1,1.6599806E1,1.056861E2,1.5578723E2,1.1137366E1,1.1458962E1,4.8092213E1,2.2175549E1,1.38268E1],"tree_param":{"num_deleted":"0","num_feature":"22","num_nodes":"123","size_leaf_vector":"1"}},{"base_weights":[1.8325064E-3,-5.996094E-2,1.6067202E-1,-8.316954E-2,3.650427E-1,3.3826607E-1,8.329267E-2,-7.20924E-1,-7.456583E-2,7.226863E-1,1.7412744E-1,1.9701608E-1,5.682888E-1,-1.02310084E-1,1.7020838E-1,-8.981742E-1,4.111834E-1,1.1636897E0,-7.836868E-2,1.1668467E-1,1.0512481E0,3.1517383E-1,-3.7810022E-1,-6.0084057E-1,2.5299713E-1,4.2977288E-1,1.0858548E0,-2.7807325E-1,1.2462022E-1,8.655599E-2,4.187346E-1,-1.0536721E0,3.5493653E-2,-4.00967E-2,7.246737E-2,1.5822512E0,-1.5153891E-2,-7.75374E-1,-7.152743E-2,7.146044E-2,-1.692834E-1,6.0587484E-1,1.5208464E0,3.737764E-2,6.296524E-1,7.324708E-1,-6.4247286E-1,4.6564746E-1,-9.703548E-1,1.0629468E0,2.1066286E-1,-1.8880211E-1,5.7292366E-1,-8.436594E-3,1.2697729E0,-5.557554E-1,4.7979355E-2,7.539971E-2,1.1445993E0,2.778751E-1,-5.54072E-2,6.0417295E-1,1.0155079E-1,6.643705E-3,-5.679621E-2,-1.0113747E-2,1.07337944E-1,-4.7858015E-2,5.7983708E-2,-9.0083573E-4,-8.63777E-3,-3.5565834E-2,2.7901087E-2,3.9097194E-2,-3.9063513E-2,2.8476989E-2,9.35535E-2,-5.8731106E-3,5.3430367E-2,3.738689E-2,-4.2814907E-2,-1.2273158E-2,6.3869946E-2,2.9560199E-2,-4.069538E-2,-1.3177045E-2,4.6001937E-2,-5.905592E-2,4.975336E-4,6.7645006E-2,-1.3775376E-2,4.234903E-3,2.2102362E-2,-5.251911E-2,4.53625E-3,3.3739265E-2,-1.266659E-2,-4.0453196E-2,4.0093802E-2,1.07800804E-1,4.800537E-2,-5.854829E-2,-2.0040063E-2,-2.7428863E-3,5.202548E-2,2.3452342E-2,-3.7657113E-3,8.722588E-2,1.9229198E-3,1.16197085E-2,6.6935085E-2,-5.403095E-3,3.0987391E-2,-7.2526685E-3,3.4953684E-2,-9.931824E-3,2.7920997E-2],"categories":[],"categories_nodes":[],"categories_segments":[],"categories_sizes":[],"default_left":[0,0,0,0,0,0,0,0,0,0,0,0,0,0,0,0,0,0,0,0,0,1,0,0,0,0,0,1,0,0,0,0,0,0,0,0,0,0,0,0,0,0,0,0,0,0,0,0,0,0,0,1,0,0,0,0,0,0,0,0,0,0,0,0,0,0,0,0,0,0,0,0,0,0,0,0,0,0,0,0,0,0,0,0,0,0,0,0,0,0,0,0,0,0,0,0,0,0,0,0,0,0,0,0,0,0,0,0,0,0,0,0,0,0,0,0,0],"id":13,"left_children":[1,3,5,7,9,11,13,15,17,19,21,23,25,27,29,31,33,35,37,39,41,43,45,47,49,51,53,55,57,59,61,63,-1,-1,-1,65,-1,67,69,-1,71,73,75,77,79,81,83,85,87,89,91,93,95,97,99,101,103,105,107,109,111,113,115,-1,-1,-1,-1,-1,-1,-1,-1,-1,-1,-1,-1,-1,-1,-1,-1,-1,-1,-1,-1,-1,-1,-1,-1,-1,-1,-1,-1,-1,-1,-1,-1,-1,-1,-1,-1,-1,-1,-1,-1,-1,-1,-1,-1,-1,-1,-1,-1,-1,-1,-1,-1,-1,-1],"loss_changes":[2.8480564E1,2.0635801E1,1.1139723E1,1.081969E1,7.2726145E0,7.89065E0,9.170149E0,5.6393204E0,9.303651E0,7.3227196E0,5.724247E0,7.03617E0,6.2131844E0,7.2771344E0,8.005108E0,6.5044193E0,6.5036807E0,4.1957045E0,9.249276E0,5.598487E0,4.123657E0,5.0317397E0,4.902616E0,4.5509477E0,4.7385855E0,6.76344E0,3.8380127E0,9.319149E0,3.927215E0,7.909462E0,5.6525383E0,2.2389069E0,0E0,0E0,0E0,5.3401356E0,0E0,7.7460423E0,1.0470086E1,0E0,5.3689504E0,4.0405984E0,2.6257572E0,5.2013392E0,5.391671E0,2.1093135E0,3.1725535E0,1.3532081E0,1.674849E0,3.0667229E0,4.007652E0,3.678124E0,5.3286705E0,3.0684178E0,2.3997917E0,4.822277E0,4.969312E0,4.623444E0,2.3282914E0,5.6700706E0,6.0279584E0,4.4459057E0,5.1912336E0,0E0,0E0,0E0,0E0,0E0,0E0,0E0,0E0,0E0,0E0,0E0,0E0,0E0,0E0,0E0,0E0,0E0,0E0,0E0,0E0,0E0,0E0,0E0,0E0,0E0,0E0,0E0,0E0,0E0,0E0,0E0,0E0,0E0,0E0,0E0,0E0,0E0,0E0,0E0,0E0,0E0,0E0,0E0,0E0,0E0,0E0,0E0,0E0,0E0,0E0,0E0,0E0,0E0,0E0],"parents":[2147483647,0,0,1,1,2,2,3,3,4,4,5,5,6,6,7,7,8,8,9,9,10,10,11,11,12,12,13,13,14,14,15,15,16,16,17,17,18,18,19,19,20,20,21,21,22,22,23,23,24,24,25,25,26,26,27,27,28,28,29,29,30,30,31,31,35,35,37,37,38,38,40,40,41,41,42,42,43,43,44,44,45,45,46,46,47,47,48,48,49,49,50,50,51,51,52,52,53,53,54,54,55,55,56,56,